<?xml version="1.0"?>
<MethodSetup Method="BDT::BDT">
  <GeneralInfo>
    <Info name="TMVA Release" value="4.2.1 [262657]"/>
    <Info name="ROOT Release" value="6.08/06 [395270]"/>
    <Info name="Creator" value="daniel.fernandez"/>
    <Info name="Date" value="Mon Jul 23 17:54:18 2018"/>
    <Info name="Host" value="Linux lcgapp-slc6-x86-64-3.cern.ch 2.6.32-642.4.2.el6.x86_64 #1 SMP Wed Aug 24 09:19:54 CEST 2016 x86_64 x86_64 x86_64 GNU/Linux"/>
    <Info name="Dir" value="/home3/daniel.fernandez/bsksks/TMVA"/>
    <Info name="Training events" value="44236"/>
    <Info name="TrainingTime" value="3.62284276e+02"/>
    <Info name="AnalysisType" value="Classification"/>
  </GeneralInfo>
  <Options>
    <Option name="V" modified="Yes">False</Option>
    <Option name="VerbosityLevel" modified="No">Default</Option>
    <Option name="VarTransform" modified="Yes">D,G</Option>
    <Option name="H" modified="Yes">False</Option>
    <Option name="CreateMVAPdfs" modified="No">False</Option>
    <Option name="IgnoreNegWeightsInTraining" modified="No">False</Option>
    <Option name="NTrees" modified="Yes">300</Option>
    <Option name="MaxDepth" modified="Yes">3</Option>
    <Option name="MinNodeSize" modified="Yes">5</Option>
    <Option name="nCuts" modified="Yes">-1</Option>
    <Option name="BoostType" modified="Yes">AdaBoost</Option>
    <Option name="AdaBoostR2Loss" modified="No">quadratic</Option>
    <Option name="UseBaggedBoost" modified="Yes">True</Option>
    <Option name="Shrinkage" modified="No">1.000000e+00</Option>
    <Option name="AdaBoostBeta" modified="No">5.000000e-01</Option>
    <Option name="UseRandomisedTrees" modified="No">False</Option>
    <Option name="UseNvars" modified="No">4</Option>
    <Option name="UsePoissonNvars" modified="No">True</Option>
    <Option name="BaggedSampleFraction" modified="No">6.000000e-01</Option>
    <Option name="UseYesNoLeaf" modified="No">True</Option>
    <Option name="NegWeightTreatment" modified="No">inverseboostnegweights</Option>
    <Option name="Css" modified="No">1.000000e+00</Option>
    <Option name="Cts_sb" modified="No">1.000000e+00</Option>
    <Option name="Ctb_ss" modified="No">1.000000e+00</Option>
    <Option name="Cbb" modified="No">1.000000e+00</Option>
    <Option name="NodePurityLimit" modified="No">5.000000e-01</Option>
    <Option name="SeparationType" modified="No">giniindex</Option>
    <Option name="RegressionLossFunctionBDTG" modified="No">huber</Option>
    <Option name="HuberQuantile" modified="No">7.000000e-01</Option>
    <Option name="DoBoostMonitor" modified="No">False</Option>
    <Option name="UseFisherCuts" modified="No">False</Option>
    <Option name="MinLinCorrForFisher" modified="No">8.000000e-01</Option>
    <Option name="UseExclusiveVars" modified="No">False</Option>
    <Option name="DoPreselection" modified="No">False</Option>
    <Option name="SigToBkgFraction" modified="No">1.000000e+00</Option>
    <Option name="PruneMethod" modified="No">nopruning</Option>
    <Option name="PruneStrength" modified="No">0.000000e+00</Option>
    <Option name="PruningValFraction" modified="No">5.000000e-01</Option>
    <Option name="SkipNormalization" modified="No">False</Option>
    <Option name="nEventsMin" modified="No">0</Option>
    <Option name="UseBaggedGrad" modified="No">False</Option>
    <Option name="GradBaggingFraction" modified="No">6.000000e-01</Option>
    <Option name="UseNTrainEvents" modified="No">0</Option>
    <Option name="NNodesMax" modified="No">0</Option>
  </Options>
  <Variables NVar="16">
    <Variable VarIndex="0" Expression="Bs_PT" Label="Bs_PT" Title="Bs_PT" Unit="" Internal="Bs_PT" Type="D" Min="3.91900492e+00" Max="7.05058672e+04"/>
    <Variable VarIndex="1" Expression="Kst_PT" Label="Kst_PT" Title="Kst_PT" Unit="" Internal="Kst_PT" Type="D" Min="9.00950012e+02" Max="5.11124375e+04"/>
    <Variable VarIndex="2" Expression="Kstb_PT" Label="Kstb_PT" Title="Kstb_PT" Unit="" Internal="Kstb_PT" Type="D" Min="9.00329651e+02" Max="4.31516797e+04"/>
    <Variable VarIndex="3" Expression="max(Kp_PT,Km_PT)" Label="max_Kp_Km_PT" Title="max_Kp_Km_PT" Unit="" Internal="max_Kp_Km_PT" Type="D" Min="5.18157104e+02" Max="2.14244297e+04"/>
    <Variable VarIndex="4" Expression="min(Kp_PT,Km_PT)" Label="min_Kp_Km_PT" Title="min_Kp_Km_PT" Unit="" Internal="min_Kp_Km_PT" Type="D" Min="5.00005341e+02" Max="1.41713340e+04"/>
    <Variable VarIndex="5" Expression="max(pip_PT,pim_PT)" Label="max_pip_pim_PT" Title="max_pip_pim_PT" Unit="" Internal="max_pip_pim_PT" Type="D" Min="5.06393860e+02" Max="3.69788711e+04"/>
    <Variable VarIndex="6" Expression="min(pip_PT,pim_PT)" Label="min_pip_pim_PT" Title="min_pip_pim_PT" Unit="" Internal="min_pip_pim_PT" Type="D" Min="5.00010101e+02" Max="1.55162227e+04"/>
    <Variable VarIndex="7" Expression="Bs_DIRA_OWNPV" Label="Bs_DIRA_OWNPV" Title="Bs_DIRA_OWNPV" Unit="" Internal="Bs_DIRA_OWNPV" Type="D" Min="9.90045011e-01" Max="1.00000000e+00"/>
    <Variable VarIndex="8" Expression="Bs_ENDVERTEX_CHI2" Label="Bs_ENDVERTEX_CHI2" Title="Bs_ENDVERTEX_CHI2" Unit="" Internal="Bs_ENDVERTEX_CHI2" Type="D" Min="3.33835743e-02" Max="7.49655991e+01"/>
    <Variable VarIndex="9" Expression="Bs_LOKI_ETA" Label="Bs_LOKI_ETA" Title="Bs_LOKI_ETA" Unit="" Internal="Bs_LOKI_ETA" Type="D" Min="1.86865139e+00" Max="1.09122849e+01"/>
    <Variable VarIndex="10" Expression="Kst_LOKI_ETA" Label="Kst_LOKI_ETA" Title="Kst_LOKI_ETA" Unit="" Internal="Kst_LOKI_ETA" Type="D" Min="1.75132549e+00" Max="5.43462133e+00"/>
    <Variable VarIndex="11" Expression="Kstb_LOKI_ETA" Label="Kstb_LOKI_ETA" Title="Kstb_LOKI_ETA" Unit="" Internal="Kstb_LOKI_ETA" Type="D" Min="1.71781290e+00" Max="5.27129507e+00"/>
    <Variable VarIndex="12" Expression="max(Kp_LOKI_ETA,Km_LOKI_ETA)" Label="max_Kp_Km_ETA" Title="max_Kp_Km_ETA" Unit="" Internal="max_Kp_Km_ETA" Type="D" Min="1.94631743e+00" Max="5.16593361e+00"/>
    <Variable VarIndex="13" Expression="min(Kp_LOKI_ETA,Km_LOKI_ETA)" Label="min_Kp_Km_ETA" Title="min_Kp_Km_ETA" Unit="" Internal="min_Kp_Km_ETA" Type="D" Min="1.60177112e+00" Max="4.85540676e+00"/>
    <Variable VarIndex="14" Expression="max(pip_LOKI_ETA,pim_LOKI_ETA)" Label="max_pip_pim_ETA" Title="max_pip_pim_ETA" Unit="" Internal="max_pip_pim_ETA" Type="D" Min="1.91958177e+00" Max="5.11639166e+00"/>
    <Variable VarIndex="15" Expression="min(pip_LOKI_ETA,pim_LOKI_ETA)" Label="min_pip_pim_ETA" Title="min_pip_pim_ETA" Unit="" Internal="min_pip_pim_ETA" Type="D" Min="1.67465365e+00" Max="4.85742998e+00"/>
  </Variables>
  <Spectators NSpec="1">
    <Spectator SpecIndex="0" Expression="Bs_M" Label="Bs_M" Title="D" Unit="" Internal="Bs_M" Type="F" Min="4.84510107e+03" Max="5.87702344e+03"/>
  </Spectators>
  <Classes NClass="2">
    <Class Name="Signal" Index="0"/>
    <Class Name="Background" Index="1"/>
  </Classes>
  <Transformations NTransformations="2">
    <Transform Name="Decorrelation">
      <Selection>
        <Input NInputs="16">
          <Input Type="Variable" Label="Bs_PT" Expression="Bs_PT"/>
          <Input Type="Variable" Label="Kst_PT" Expression="Kst_PT"/>
          <Input Type="Variable" Label="Kstb_PT" Expression="Kstb_PT"/>
          <Input Type="Variable" Label="max_Kp_Km_PT" Expression="max(Kp_PT,Km_PT)"/>
          <Input Type="Variable" Label="min_Kp_Km_PT" Expression="min(Kp_PT,Km_PT)"/>
          <Input Type="Variable" Label="max_pip_pim_PT" Expression="max(pip_PT,pim_PT)"/>
          <Input Type="Variable" Label="min_pip_pim_PT" Expression="min(pip_PT,pim_PT)"/>
          <Input Type="Variable" Label="Bs_DIRA_OWNPV" Expression="Bs_DIRA_OWNPV"/>
          <Input Type="Variable" Label="Bs_ENDVERTEX_CHI2" Expression="Bs_ENDVERTEX_CHI2"/>
          <Input Type="Variable" Label="Bs_LOKI_ETA" Expression="Bs_LOKI_ETA"/>
          <Input Type="Variable" Label="Kst_LOKI_ETA" Expression="Kst_LOKI_ETA"/>
          <Input Type="Variable" Label="Kstb_LOKI_ETA" Expression="Kstb_LOKI_ETA"/>
          <Input Type="Variable" Label="max_Kp_Km_ETA" Expression="max(Kp_LOKI_ETA,Km_LOKI_ETA)"/>
          <Input Type="Variable" Label="min_Kp_Km_ETA" Expression="min(Kp_LOKI_ETA,Km_LOKI_ETA)"/>
          <Input Type="Variable" Label="max_pip_pim_ETA" Expression="max(pip_LOKI_ETA,pim_LOKI_ETA)"/>
          <Input Type="Variable" Label="min_pip_pim_ETA" Expression="min(pip_LOKI_ETA,pim_LOKI_ETA)"/>
        </Input>
        <Output NOutputs="16">
          <Output Type="Variable" Label="Bs_PT" Expression="Bs_PT"/>
          <Output Type="Variable" Label="Kst_PT" Expression="Kst_PT"/>
          <Output Type="Variable" Label="Kstb_PT" Expression="Kstb_PT"/>
          <Output Type="Variable" Label="max_Kp_Km_PT" Expression="max(Kp_PT,Km_PT)"/>
          <Output Type="Variable" Label="min_Kp_Km_PT" Expression="min(Kp_PT,Km_PT)"/>
          <Output Type="Variable" Label="max_pip_pim_PT" Expression="max(pip_PT,pim_PT)"/>
          <Output Type="Variable" Label="min_pip_pim_PT" Expression="min(pip_PT,pim_PT)"/>
          <Output Type="Variable" Label="Bs_DIRA_OWNPV" Expression="Bs_DIRA_OWNPV"/>
          <Output Type="Variable" Label="Bs_ENDVERTEX_CHI2" Expression="Bs_ENDVERTEX_CHI2"/>
          <Output Type="Variable" Label="Bs_LOKI_ETA" Expression="Bs_LOKI_ETA"/>
          <Output Type="Variable" Label="Kst_LOKI_ETA" Expression="Kst_LOKI_ETA"/>
          <Output Type="Variable" Label="Kstb_LOKI_ETA" Expression="Kstb_LOKI_ETA"/>
          <Output Type="Variable" Label="max_Kp_Km_ETA" Expression="max(Kp_LOKI_ETA,Km_LOKI_ETA)"/>
          <Output Type="Variable" Label="min_Kp_Km_ETA" Expression="min(Kp_LOKI_ETA,Km_LOKI_ETA)"/>
          <Output Type="Variable" Label="max_pip_pim_ETA" Expression="max(pip_LOKI_ETA,pim_LOKI_ETA)"/>
          <Output Type="Variable" Label="min_pip_pim_ETA" Expression="min(pip_LOKI_ETA,pim_LOKI_ETA)"/>
        </Output>
      </Selection>
      <Matrix Rows="16" Columns="16">
        8.043218286834724e-04 -4.913311278218472e-04 -4.899847645850868e-04 -3.172869006975157e-04 -2.112556078265517e-04 -2.957606855189770e-04 -1.827815103230657e-04 -1.128908278944518e-04 2.214018153864211e-06 2.071918812122320e-03 -3.876356538201620e-04 -4.019990513557392e-04 -1.075193060450896e-03 6.319434264274726e-04 -1.077576954235493e-03 5.557386524204233e-04 -4.913311278218470e-04 5.223754681172096e-03 4.806863454811916e-03 -4.339066765733823e-03 -4.310179406849293e-03 -4.356338444857923e-03 -4.352251858793481e-03 -1.022720741324881e-03 2.660296565582226e-03 -7.039037632146083e-04 5.373974125411962e-03 5.068881053539087e-03 -2.126579830100894e-03 -3.367620097494139e-03 -1.271530571786084e-03 -2.053589651723087e-03 -4.899847645850874e-04 4.806863454811916e-03 5.222345085060548e-03 -4.348924576434680e-03 -4.300522857127437e-03 -4.361859364514675e-03 -4.353758612100763e-03 -1.019753090594155e-03 2.658039093815706e-03 -7.029777891389699e-04 5.270444821061204e-03 5.181995498233505e-03 -2.127010017249908e-03 -3.369997749397058e-03 -1.270355252596556e-03 -2.054571518176118e-03 -3.172869006975159e-04 -4.339066765733818e-03 -4.348924576434677e-03 5.242603419061173e-03 4.337720762268915e-03 4.614244257352247e-03 4.615587368611002e-03 1.119958058816256e-03 -2.667342484831303e-03 -1.394875555144282e-03 -4.883164927417027e-03 -4.675138140639135e-03 3.392805080506989e-03 2.636112935173962e-03 2.537741835647367e-03 1.389213813526524e-03 -2.112556078265517e-04 -4.310179406849289e-03 -4.300522857127433e-03 4.337720762268915e-03 5.707503446422634e-03 4.487747418471896e-03 4.364425404386212e-03 1.116008026378576e-03 -2.657015840400789e-03 -1.612357149029187e-03 -4.890975214539850e-03 -4.668846500715418e-03 3.560006795899184e-03 2.710281363450306e-03 2.560355936593872e-03 1.308721239682953e-03 -2.957606855189757e-04 -4.356338444857920e-03 -4.361859364514673e-03 4.614244257352248e-03 4.487747418471897e-03 5.375372995333554e-03 4.336049734741986e-03 1.133931345547345e-03 -2.674387224389868e-03 -1.413282800786675e-03 -4.908290632043233e-03 -4.694964121815914e-03 3.372231812274862e-03 2.601695498629653e-03 2.517727596247354e-03 1.407405516491878e-03 -1.827815103230653e-04 -4.352251858793480e-03 -4.353758612100763e-03 4.615587368611005e-03 4.364425404386215e-03 4.336049734741990e-03 6.124402757932274e-03 1.153532355508075e-03 -2.662335220588313e-03 -1.581756839994730e-03 -4.739800458198218e-03 -4.533266981523454e-03 3.430961729751658e-03 2.453995247306828e-03 2.585540742980896e-03 1.394293911507916e-03 -1.128908278944859e-04 -1.022720741324457e-03 -1.019753090593894e-03 1.119958058815769e-03 1.116008026378215e-03 1.133931345547022e-03 1.153532355507855e-03 6.108425757677683e+03 1.854626982457810e-02 -7.092812884270694e-02 2.818794314174902e-01 2.520431120097615e-01 -2.077945575495790e-01 -3.048723570821537e-01 -3.896772195854625e-02 -2.441424126306038e-01 2.214018153862587e-06 2.660296565582261e-03 2.658039093815784e-03 -2.667342484831324e-03 -2.657015840400852e-03 -2.674387224389925e-03 -2.662335220588351e-03 1.854626982457789e-02 1.231443267726317e-01 -1.125880772678027e-03 3.539796236120551e-04 3.527895114618929e-05 2.961858408317308e-03 2.530797593069067e-03 -2.296645730400559e-03 4.239426717029815e-04 2.071918812124389e-03 -7.039037632176795e-04 -7.029777891378120e-04 -1.394875555138908e-03 -1.612357149026127e-03 -1.413282800786212e-03 -1.581756839992251e-03 -7.092812884270588e-02 -1.125880772677099e-03 4.223916666792841e+00 -7.301876001016998e-01 -7.502971417819999e-01 -1.232431383270349e+00 8.518377216151451e-02 -1.186148110475811e+00 2.535583323380752e-01 -3.876356538210795e-04 5.373974125416611e-03 5.270444821063444e-03 -4.883164927431516e-03 -4.890975214551903e-03 -4.908290632049511e-03 -4.739800458202631e-03 2.818794314174890e-01 3.539796236172316e-04 -7.301876001017051e-01 9.874635061086716e+00 7.695855051235077e+00 -4.397042738594397e+00 -4.732421910475884e+00 -3.360551195707532e+00 -3.531196607746509e+00 -4.019990513565893e-04 5.068881053545382e-03 5.181995498236367e-03 -4.675138140650362e-03 -4.668846500723884e-03 -4.694964121823677e-03 -4.533266981522848e-03 2.520431120097603e-01 3.527895115136223e-05 -7.502971417820006e-01 7.695855051235073e+00 9.878395708353526e+00 -4.393476029558720e+00 -4.734695503682356e+00 -3.354951888001280e+00 -3.530329906747872e+00 -1.075193060451167e-03 -2.126579830102240e-03 -2.127010017251007e-03 3.392805080512886e-03 3.560006795903729e-03 3.372231812281737e-03 3.430961729752791e-03 -2.077945575495787e-01 2.961858408315157e-03 -1.232431383270345e+00 -4.397042738594395e+00 -4.393476029558721e+00 6.786915407391716e+00 1.646574839761267e+00 1.020257748457738e+00 1.350206597047216e+00 6.319434264275647e-04 -3.367620097497256e-03 -3.369997749397561e-03 2.636112935180590e-03 2.710281363455102e-03 2.601695498631126e-03 2.453995247306441e-03 -3.048723570821532e-01 2.530797593068186e-03 8.518377216150963e-02 -4.732421910475882e+00 -4.734695503682357e+00 1.646574839761268e+00 6.944722718760568e+00 1.445914664030637e+00 2.757938872224770e-01 -1.077576954235192e-03 -1.271530571788256e-03 -1.270355252598245e-03 2.537741835651481e-03 2.560355936597837e-03 2.517727596249726e-03 2.585540742981824e-03 -3.896772195854573e-02 -2.296645730402183e-03 -1.186148110475808e+00 -3.360551195707533e+00 -3.354951888001286e+00 1.020257748457739e+00 1.445914664030639e+00 5.588553220221840e+00 6.219878751283447e-01 5.557386524209977e-04 -2.053589651727754e-03 -2.054571518179446e-03 1.389213813532808e-03 1.308721239687866e-03 1.407405516496520e-03 1.394293911510693e-03 -2.441424126306031e-01 4.239426716985267e-04 2.535583323380748e-01 -3.531196607746512e+00 -3.530329906747875e+00 1.350206597047217e+00 2.757938872224799e-01 6.219878751283447e-01 5.586618263455955e+00 
      </Matrix>
      <Matrix Rows="16" Columns="16">
        6.375523492829250e-04 -3.811335335917069e-04 -3.849638502813175e-04 -3.107151997718048e-04 -1.203931030923704e-04 -2.641804651811728e-04 -1.509875555951953e-04 -2.727142513235109e-04 -1.118986714597689e-04 1.294725591996726e-03 -9.466363000765199e-05 -8.562682837176538e-05 -4.312556205441354e-04 2.508856189016306e-04 -3.952602571732911e-04 3.107138005264964e-04 -3.811335335917063e-04 3.104637537301004e-03 2.669474268257493e-03 -2.347948830689045e-03 -2.375541199785891e-03 -2.380411155111008e-03 -2.338087581733212e-03 1.927565722811830e-04 -8.911259416019210e-05 2.075428941203938e-04 3.019761452694780e-03 2.923402841686240e-03 -1.049069452955687e-03 -1.954826203727222e-03 -7.399041757940594e-04 -1.359182946190529e-03 -3.849638502813164e-04 2.669474268257489e-03 3.109004691953505e-03 -2.347023617467718e-03 -2.373042908925748e-03 -2.390206693519963e-03 -2.317392160521797e-03 1.898328257916582e-04 -8.521982236301892e-05 2.059116017256724e-04 2.922986793659987e-03 3.025440321250628e-03 -1.046856989384448e-03 -1.954419463691792e-03 -7.382410746012980e-04 -1.364885206866617e-03 -3.107151997718054e-04 -2.347948830689043e-03 -2.347023617467719e-03 3.299200878950701e-03 2.295908692608407e-03 2.636197612465718e-03 2.500973199511518e-03 4.967361740115805e-05 2.053128422946689e-04 -1.485020712071350e-03 -2.817386517023124e-03 -2.831136282821944e-03 1.603789199947414e-03 1.702404493141074e-03 1.251783608335444e-03 1.004166437039267e-03 -1.203931030923712e-04 -2.375541199785891e-03 -2.373042908925750e-03 2.295908692608408e-03 3.749016832667646e-03 2.474665689915177e-03 2.346973397863773e-03 7.942225261969860e-05 2.789894582182154e-04 -1.556186138489457e-03 -2.802465071385818e-03 -2.812437796854361e-03 1.806911673632783e-03 1.824627691958014e-03 1.275231280898570e-03 1.039610075115327e-03 -2.641804651811733e-04 -2.380411155111005e-03 -2.390206693519963e-03 2.636197612465716e-03 2.474665689915174e-03 3.239431497949188e-03 2.294040073195735e-03 6.656905308655148e-05 2.058923277521683e-04 -1.546755543508915e-03 -2.849658972543523e-03 -2.870654696629060e-03 1.550205748525713e-03 1.640307297523513e-03 1.194824185660970e-03 9.747389327632305e-04 -1.509875555951957e-04 -2.338087581733211e-03 -2.317392160521800e-03 2.500973199511518e-03 2.346973397863772e-03 2.294040073195737e-03 3.995326744844760e-03 4.704782457398693e-05 2.614497024412861e-04 -1.580399535826782e-03 -2.753962940134080e-03 -2.753410636951337e-03 1.564062786443721e-03 1.567210812973840e-03 1.179317062704577e-03 9.540752749681580e-04 -2.727142513234155e-04 1.927565722812503e-04 1.898328257916918e-04 4.967361740121447e-05 7.942225261985835e-05 6.656905308661187e-05 4.704782457406656e-05 4.201645113837998e+03 3.883358984858515e-03 -2.854234933047922e-01 1.161731922761009e-01 1.413557774813676e-01 -6.363880352293072e-02 -2.642601653100275e-01 -6.904377150068397e-02 -1.904011655541398e-01 -1.118986714597717e-04 -8.911259416019004e-05 -8.521982236301496e-05 2.053128422946666e-04 2.789894582182076e-04 2.058923277521593e-04 2.614497024412843e-04 3.883358984858531e-03 5.442107075167626e-02 1.349536952238600e-02 7.176194535903901e-04 1.142908113067054e-04 2.134154950675038e-03 1.403627387572721e-03 1.644487774138281e-03 -8.237465047748749e-04 1.294725591996821e-03 2.075428941209880e-04 2.059116017255318e-04 -1.485020712072013e-03 -1.556186138489769e-03 -1.546755543507711e-03 -1.580399535826067e-03 -2.854234933047924e-01 1.349536952238607e-02 1.752200955371970e+00 -2.693842823721919e-01 -2.772776729212914e-01 -4.992760878332962e-01 5.570970611818016e-02 -4.511748965175908e-01 2.059310031311865e-01 -9.466363000586898e-05 3.019761452693605e-03 2.922986793665367e-03 -2.817386517026706e-03 -2.802465071387362e-03 -2.849658972547688e-03 -2.753962940135347e-03 1.161731922761006e-01 7.176194535897317e-04 -2.693842823721873e-01 6.612816640237924e+00 4.545120434428406e+00 -2.925745746117817e+00 -3.001085293014038e+00 -2.080468312284077e+00 -1.945602823562636e+00 -8.562682836994380e-05 2.923402841688782e-03 3.025440321258485e-03 -2.831136282826629e-03 -2.812437796855979e-03 -2.870654696636446e-03 -2.753410636955370e-03 1.413557774813667e-01 1.142908113063364e-04 -2.772776729212874e-01 4.545120434428404e+00 6.619754531567620e+00 -2.921747739628147e+00 -3.014139432909581e+00 -2.068091110857837e+00 -1.967430982789835e+00 -4.312556205459559e-04 -1.049069452957007e-03 -1.046856989386330e-03 1.603789199950618e-03 1.806911673632334e-03 1.550205748528023e-03 1.564062786446623e-03 -6.363880352292992e-02 2.134154950675715e-03 -4.992760878333016e-01 -2.925745746117815e+00 -2.921747739628145e+00 4.899603767683821e+00 9.895033043664156e-01 7.807289796640844e-01 7.849934966454305e-01 2.508856189009540e-04 -1.954826203728072e-03 -1.954419463694818e-03 1.702404493142264e-03 1.824627691957129e-03 1.640307297524577e-03 1.567210812973866e-03 -2.642601653100275e-01 1.403627387572920e-03 5.570970611817772e-02 -3.001085293014041e+00 -3.014139432909585e+00 9.895033043664199e-01 4.806438657292958e+00 8.580813806852969e-01 5.079870741410315e-01 -3.952602571740341e-04 -7.399041757947059e-04 -7.382410746041125e-04 1.251783608336939e-03 1.275231280899683e-03 1.194824185664597e-03 1.179317062704866e-03 -6.904377150068361e-02 1.644487774138426e-03 -4.511748965175923e-01 -2.080468312284077e+00 -2.068091110857838e+00 7.807289796640839e-01 8.580813806852965e-01 3.728615689167282e+00 1.340203449042892e-01 3.107138005268883e-04 -1.359182946192059e-03 -1.364885206869728e-03 1.004166437040552e-03 1.039610075116910e-03 9.747389327650793e-04 9.540752749703503e-04 -1.904011655541398e-01 -8.237465047748437e-04 2.059310031311845e-01 -1.945602823562635e+00 -1.967430982789834e+00 7.849934966454311e-01 5.079870741410304e-01 1.340203449042887e-01 3.361411208361587e+00 
      </Matrix>
      <Matrix Rows="16" Columns="16">
        6.986638539640481e-04 -4.607648245122755e-04 -4.610180831351970e-04 -2.641124124183843e-04 -1.189075791985685e-04 -2.356539825774922e-04 -1.378965412386463e-04 -2.145433662244355e-04 -1.300681238501850e-05 1.472246213726658e-03 -2.022899664630984e-04 -2.056887634682703e-04 -6.685565656470160e-04 4.364849847187102e-04 -6.334151268596599e-04 4.484259501982280e-04 -4.607648245122729e-04 3.771965165746430e-03 3.348450665941264e-03 -2.923403235023791e-03 -2.916093058945039e-03 -2.948187518812529e-03 -2.924950091369573e-03 -2.448504576790245e-04 9.725116838910140e-04 1.244015179141300e-03 4.160422511853668e-03 3.981904593887364e-03 -1.347239350394602e-03 -2.301621696231493e-03 -1.020268599483121e-03 -1.747342107026206e-03 -4.610180831351949e-04 3.348450665941264e-03 3.772666430725275e-03 -2.929534597543337e-03 -2.909085197553916e-03 -2.955774393558527e-03 -2.917985228907973e-03 -2.440008316612619e-04 9.724290310124432e-04 1.242913700027604e-03 4.059226260146431e-03 4.090349887181155e-03 -1.345715353642696e-03 -2.303203496877515e-03 -1.018010348788678e-03 -1.750388232368394e-03 -2.641124124183864e-04 -2.923403235023792e-03 -2.929534597543340e-03 3.787511714582394e-03 2.842565975335031e-03 3.149344912778393e-03 3.112687132390639e-03 4.467747883047379e-04 -9.693734520646474e-04 -2.746268786067763e-03 -3.862091658032085e-03 -3.786899524261145e-03 2.165676926529692e-03 1.807935223991919e-03 1.800831858186136e-03 1.222217344364118e-03 -1.189075791985708e-04 -2.916093058945040e-03 -2.909085197553918e-03 2.842565975335031e-03 4.230423287287064e-03 3.004046536377045e-03 2.891286052850684e-03 4.773341934274367e-04 -9.399391705329422e-04 -2.909046199077836e-03 -3.878177269124095e-03 -3.793566807376081e-03 2.318276186665358e-03 1.894174726562170e-03 1.805761005256201e-03 1.198253691361728e-03 -2.356539825774944e-04 -2.948187518812527e-03 -2.955774393558527e-03 3.149344912778391e-03 3.004046536377044e-03 3.839342863276092e-03 2.861312336897692e-03 4.529722831637106e-04 -9.744948005198035e-04 -2.774662273202333e-03 -3.883119239912247e-03 -3.808785085791300e-03 2.127477136357747e-03 1.768254932414948e-03 1.758372344227155e-03 1.214223789921753e-03 -1.378965412386491e-04 -2.924950091369571e-03 -2.917985228907971e-03 3.112687132390637e-03 2.891286052850683e-03 2.861312336897691e-03 4.614211602830650e-03 4.501228700030668e-04 -9.062088743363172e-04 -2.820851756312415e-03 -3.745208658225252e-03 -3.666386717585013e-03 2.166822722711181e-03 1.664759176340347e-03 1.786512379100103e-03 1.200115254718526e-03 -2.145433662243348e-04 -2.448504576789957e-04 -2.440008316613239e-04 4.467747883048666e-04 4.773341934275338e-04 4.529722831637615e-04 4.501228700029884e-04 5.048980311998976e+03 1.025315387619355e-02 -2.155599369823770e-01 2.708553872965382e-01 2.667242702313416e-01 -9.845634892306265e-02 -3.043173176097208e-01 -6.181437670957002e-02 -2.462374263107092e-01 -1.300681238502066e-05 9.725116838910186e-04 9.724290310124497e-04 -9.693734520646524e-04 -9.399391705329454e-04 -9.744948005198076e-04 -9.062088743363218e-04 1.025315387619354e-02 7.285605204021053e-02 7.296713261005908e-03 -2.283526020003812e-03 -2.595453110222135e-03 2.185452217454489e-04 -1.020247829133236e-03 6.937797471502360e-04 -1.247930164757660e-03 1.472246213726861e-03 1.244015179139863e-03 1.242913700025448e-03 -2.746268786064987e-03 -2.909046199075591e-03 -2.774662273199916e-03 -2.820851756312609e-03 -2.155599369823768e-01 7.296713261005740e-03 2.187811406105579e+00 -4.532006704555211e-01 -4.656455864674127e-01 -6.800782942852077e-01 7.704353694316612e-02 -5.965328186080727e-01 3.011550871913768e-01 -2.022899664625937e-04 4.160422511849119e-03 4.059226260143135e-03 -3.862091658024811e-03 -3.878177269117094e-03 -3.883119239905436e-03 -3.745208658221616e-03 2.708553872965384e-01 -2.283526020005030e-03 -4.532006704555243e-01 8.002885511951419e+00 5.870149157432475e+00 -3.589523677979525e+00 -3.796324051767294e+00 -2.618064601125624e+00 -2.580138255506203e+00 -2.056887634674620e-04 3.981904593883236e-03 4.090349887177372e-03 -3.786899524253200e-03 -3.793566807369224e-03 -3.808785085786716e-03 -3.666386717580031e-03 2.667242702313420e-01 -2.595453110223065e-03 -4.656455864674142e-01 5.870149157432476e+00 8.010266199182848e+00 -3.588296189921455e+00 -3.800540904568991e+00 -2.611753464899846e+00 -2.590351885111499e+00 -6.685565656474055e-04 -1.347239350389155e-03 -1.345715353638359e-03 2.165676926522314e-03 2.318276186659495e-03 2.127477136352181e-03 2.166822722706160e-03 -9.845634892306257e-02 2.185452217470592e-04 -6.800782942852033e-01 -3.589523677979520e+00 -3.588296189921453e+00 5.688608067340123e+00 1.274676135640588e+00 7.812567205062813e-01 9.961526907701637e-01 4.364849847194248e-04 -2.301621696229981e-03 -2.303203496875168e-03 1.807935223986623e-03 1.894174726557145e-03 1.768254932410757e-03 1.664759176336844e-03 -3.043173176097214e-01 -1.020247829132726e-03 7.704353694316834e-02 -3.796324051767294e+00 -3.800540904568990e+00 1.274676135640590e+00 5.716430856812239e+00 1.138343396420967e+00 4.112308659863730e-01 -6.334151268604123e-04 -1.020268599481791e-03 -1.018010348787464e-03 1.800831858184395e-03 1.805761005253202e-03 1.758372344224925e-03 1.786512379097724e-03 -6.181437670957006e-02 6.937797471505938e-04 -5.965328186080709e-01 -2.618064601125623e+00 -2.611753464899845e+00 7.812567205062799e-01 1.138343396420966e+00 4.465675847935847e+00 2.721913057683909e-01 4.484259501965510e-04 -1.747342107025342e-03 -1.750388232367598e-03 1.222217344363002e-03 1.198253691359861e-03 1.214223789921030e-03 1.200115254719575e-03 -2.462374263107089e-01 -1.247930164757498e-03 3.011550871913768e-01 -2.580138255506203e+00 -2.590351885111499e+00 9.961526907701650e-01 4.112308659863726e-01 2.721913057683929e-01 4.243782684496440e+00 
      </Matrix>
    </Transform>
    <Transform Name="Gauss" FlatOrGauss="Gauss">
      <Selection>
        <Input NInputs="16">
          <Input Type="Variable" Label="Bs_PT" Expression="Bs_PT"/>
          <Input Type="Variable" Label="Kst_PT" Expression="Kst_PT"/>
          <Input Type="Variable" Label="Kstb_PT" Expression="Kstb_PT"/>
          <Input Type="Variable" Label="max_Kp_Km_PT" Expression="max(Kp_PT,Km_PT)"/>
          <Input Type="Variable" Label="min_Kp_Km_PT" Expression="min(Kp_PT,Km_PT)"/>
          <Input Type="Variable" Label="max_pip_pim_PT" Expression="max(pip_PT,pim_PT)"/>
          <Input Type="Variable" Label="min_pip_pim_PT" Expression="min(pip_PT,pim_PT)"/>
          <Input Type="Variable" Label="Bs_DIRA_OWNPV" Expression="Bs_DIRA_OWNPV"/>
          <Input Type="Variable" Label="Bs_ENDVERTEX_CHI2" Expression="Bs_ENDVERTEX_CHI2"/>
          <Input Type="Variable" Label="Bs_LOKI_ETA" Expression="Bs_LOKI_ETA"/>
          <Input Type="Variable" Label="Kst_LOKI_ETA" Expression="Kst_LOKI_ETA"/>
          <Input Type="Variable" Label="Kstb_LOKI_ETA" Expression="Kstb_LOKI_ETA"/>
          <Input Type="Variable" Label="max_Kp_Km_ETA" Expression="max(Kp_LOKI_ETA,Km_LOKI_ETA)"/>
          <Input Type="Variable" Label="min_Kp_Km_ETA" Expression="min(Kp_LOKI_ETA,Km_LOKI_ETA)"/>
          <Input Type="Variable" Label="max_pip_pim_ETA" Expression="max(pip_LOKI_ETA,pim_LOKI_ETA)"/>
          <Input Type="Variable" Label="min_pip_pim_ETA" Expression="min(pip_LOKI_ETA,pim_LOKI_ETA)"/>
        </Input>
        <Output NOutputs="16">
          <Output Type="Variable" Label="Bs_PT" Expression="Bs_PT"/>
          <Output Type="Variable" Label="Kst_PT" Expression="Kst_PT"/>
          <Output Type="Variable" Label="Kstb_PT" Expression="Kstb_PT"/>
          <Output Type="Variable" Label="max_Kp_Km_PT" Expression="max(Kp_PT,Km_PT)"/>
          <Output Type="Variable" Label="min_Kp_Km_PT" Expression="min(Kp_PT,Km_PT)"/>
          <Output Type="Variable" Label="max_pip_pim_PT" Expression="max(pip_PT,pim_PT)"/>
          <Output Type="Variable" Label="min_pip_pim_PT" Expression="min(pip_PT,pim_PT)"/>
          <Output Type="Variable" Label="Bs_DIRA_OWNPV" Expression="Bs_DIRA_OWNPV"/>
          <Output Type="Variable" Label="Bs_ENDVERTEX_CHI2" Expression="Bs_ENDVERTEX_CHI2"/>
          <Output Type="Variable" Label="Bs_LOKI_ETA" Expression="Bs_LOKI_ETA"/>
          <Output Type="Variable" Label="Kst_LOKI_ETA" Expression="Kst_LOKI_ETA"/>
          <Output Type="Variable" Label="Kstb_LOKI_ETA" Expression="Kstb_LOKI_ETA"/>
          <Output Type="Variable" Label="max_Kp_Km_ETA" Expression="max(Kp_LOKI_ETA,Km_LOKI_ETA)"/>
          <Output Type="Variable" Label="min_Kp_Km_ETA" Expression="min(Kp_LOKI_ETA,Km_LOKI_ETA)"/>
          <Output Type="Variable" Label="max_pip_pim_ETA" Expression="max(pip_LOKI_ETA,pim_LOKI_ETA)"/>
          <Output Type="Variable" Label="min_pip_pim_ETA" Expression="min(pip_LOKI_ETA,pim_LOKI_ETA)"/>
        </Output>
      </Selection>
      <Variable VarIndex="0">
        <CumulativePDF_cls0>
          <PDF Name="GaussTransform var0 cls0" MinNSmooth="0" MaxNSmooth="0" InterpolMethod="1" KDE_type="0" KDE_iter="1" KDE_border="1" KDE_finefactor="0.0000000000000000e+00">
            <Histogram Name="Cumulative_Var0_cls0_original" NBins="1951" XMin="-3.3769910335540771e+00" XMax="1.4656634330749512e+00" HasEquidistantBins="0">
              4.11933259e-04 8.87945003e-04 1.39828457e-03 1.91320106e-03 2.42582918e-03 2.93845707e-03 3.45108518e-03 3.96371307e-03 4.47634142e-03 4.98896930e-03 5.50159719e-03 6.01422554e-03 6.52685342e-03 7.03948131e-03 7.55210966e-03 8.06473754e-03 8.57736543e-03 9.08999331e-03 9.60262213e-03 1.01152500e-02 1.06278779e-02 1.11405058e-02 1.16531337e-02 1.21657616e-02 1.26783904e-02 1.31910183e-02 1.37036461e-02 1.42162740e-02 1.47289019e-02 1.52415298e-02 1.57541577e-02 1.62667856e-02 1.67794134e-02 1.72920432e-02 1.78046711e-02 1.83172990e-02 1.88299268e-02 1.93425547e-02 1.98551826e-02 2.03678105e-02 2.08804384e-02 2.13930663e-02 2.19056942e-02 2.24183220e-02 2.29309499e-02 2.34435797e-02 2.39562076e-02 2.44688354e-02 2.49814633e-02 2.54940912e-02 2.60067191e-02 2.65193470e-02 2.70319749e-02 2.75446028e-02 2.80572306e-02 2.85698585e-02 2.90824883e-02 2.95951162e-02 3.01077440e-02 3.06203719e-02 3.11329998e-02 3.16456258e-02 3.21582556e-02 3.26708853e-02 3.31835113e-02 3.36961411e-02 3.42087671e-02 3.47213969e-02 3.52340229e-02 3.57466526e-02 3.62592787e-02 3.67719084e-02 3.72845344e-02 3.77971642e-02 3.83097939e-02 3.88224199e-02 3.93350497e-02 3.98476757e-02 4.03603055e-02 4.08729315e-02 4.13855612e-02 4.18981872e-02 4.24108170e-02 4.29234430e-02 4.34360728e-02 4.39486988e-02 4.44613285e-02 4.49739583e-02 4.54865843e-02 4.59992141e-02 4.65118401e-02 4.70244698e-02 4.75370958e-02 4.80497256e-02 4.85623516e-02 4.90749814e-02 4.95876074e-02 5.01002371e-02 5.06128669e-02 5.11254929e-02 5.16381226e-02 5.21507487e-02 5.26633784e-02 5.31760044e-02 5.36886342e-02 5.42012602e-02 5.47138900e-02 5.52265160e-02 5.57391457e-02 5.62517717e-02 5.67644015e-02 5.72770312e-02 5.77896573e-02 5.83022870e-02 5.88149130e-02 5.93275428e-02 5.98401688e-02 6.03527986e-02 6.08654246e-02 6.13780543e-02 6.18906803e-02 6.24033101e-02 6.29159361e-02 6.34285659e-02 6.39411956e-02 6.44538254e-02 6.49664477e-02 6.54790774e-02 6.59917071e-02 6.65043369e-02 6.70169592e-02 6.75295889e-02 6.80422187e-02 6.85548484e-02 6.90674782e-02 6.95801005e-02 7.00927302e-02 7.06053600e-02 7.11179897e-02 7.16306120e-02 7.21432418e-02 7.26558715e-02 7.31685013e-02 7.36811236e-02 7.41937533e-02 7.47063830e-02 7.52190128e-02 7.57316425e-02 7.62442648e-02 7.67568946e-02 7.72695243e-02 7.77821541e-02 7.82947764e-02 7.88074061e-02 7.93200359e-02 7.98326656e-02 8.03452879e-02 8.08579177e-02 8.13705474e-02 8.18831772e-02 8.23958069e-02 8.29084292e-02 8.34210590e-02 8.39336887e-02 8.44463184e-02 8.49589407e-02 8.54715705e-02 8.59842002e-02 8.64968300e-02 8.70094597e-02 8.75220820e-02 8.80347118e-02 8.85473415e-02 8.90599713e-02 8.95725936e-02 9.00852233e-02 9.05978531e-02 9.11104828e-02 9.16231051e-02 9.21357349e-02 9.26483646e-02 9.31609944e-02 9.36736241e-02 9.41862464e-02 9.46988761e-02 9.52115059e-02 9.57241356e-02 9.62367579e-02 9.67493877e-02 9.72620174e-02 9.77746472e-02 9.82872695e-02 9.87998992e-02 9.93125290e-02 9.98251587e-02 1.00337788e-01 1.00850411e-01 1.01363041e-01 1.01875670e-01 1.02388300e-01 1.02900922e-01 1.03413552e-01 1.03926182e-01 1.04438812e-01 1.04951441e-01 1.05464064e-01 1.05976693e-01 1.06489323e-01 1.07001953e-01 1.07514575e-01 1.08027205e-01 1.08539835e-01 1.09052464e-01 1.09565087e-01 1.10077716e-01 1.10590346e-01 1.11102976e-01 1.11615606e-01 1.12128228e-01 1.12640858e-01 1.13153487e-01 1.13666117e-01 1.14178739e-01 1.14691369e-01 1.15203999e-01 1.15716629e-01 1.16229251e-01 1.16741881e-01 1.17254511e-01 1.17767140e-01 1.18279770e-01 1.18792392e-01 1.19305022e-01 1.19817652e-01 1.20330282e-01 1.20842904e-01 1.21355534e-01 1.21868163e-01 1.22380793e-01 1.22893423e-01 1.23406045e-01 1.23918675e-01 1.24431305e-01 1.24943934e-01 1.25456557e-01 1.25969186e-01 1.26481816e-01 1.26994446e-01 1.27507076e-01 1.28019705e-01 1.28532320e-01 1.29044950e-01 1.29557580e-01 1.30070210e-01 1.30582839e-01 1.31095469e-01 1.31608099e-01 1.32120728e-01 1.32633358e-01 1.33145973e-01 1.33658603e-01 1.34171233e-01 1.34683862e-01 1.35196492e-01 1.35709122e-01 1.36221752e-01 1.36734381e-01 1.37247011e-01 1.37759626e-01 1.38272256e-01 1.38784885e-01 1.39297515e-01 1.39810145e-01 1.40322775e-01 1.40835404e-01 1.41348034e-01 1.41860664e-01 1.42373279e-01 1.42885908e-01 1.43398538e-01 1.43911168e-01 1.44423798e-01 1.44936427e-01 1.45449057e-01 1.45961687e-01 1.46474302e-01 1.46986932e-01 1.47499561e-01 1.48012191e-01 1.48524821e-01 1.49037451e-01 1.49550080e-01 1.50062710e-01 1.50575340e-01 1.51087955e-01 1.51600584e-01 1.52113214e-01 1.52625844e-01 1.53138474e-01 1.53651103e-01 1.54163733e-01 1.54676363e-01 1.55188993e-01 1.55701607e-01 1.56214237e-01 1.56726867e-01 1.57239497e-01 1.57752126e-01 1.58264756e-01 1.58777386e-01 1.59290016e-01 1.59802645e-01 1.60315260e-01 1.60827890e-01 1.61340520e-01 1.61853150e-01 1.62365779e-01 1.62878409e-01 1.63391039e-01 1.63903669e-01 1.64416283e-01 1.64928913e-01 1.65441543e-01 1.65954173e-01 1.66466802e-01 1.66979432e-01 1.67492062e-01 1.68004692e-01 1.68517321e-01 1.69029936e-01 1.69542566e-01 1.70055196e-01 1.70567825e-01 1.71080455e-01 1.71593085e-01 1.72105715e-01 1.72618344e-01 1.73130974e-01 1.73643589e-01 1.74156219e-01 1.74668849e-01 1.75181478e-01 1.75694108e-01 1.76206738e-01 1.76719368e-01 1.77231997e-01 1.77744627e-01 1.78257242e-01 1.78769872e-01 1.79282501e-01 1.79795131e-01 1.80307761e-01 1.80820391e-01 1.81333020e-01 1.81845650e-01 1.82358265e-01 1.82870895e-01 1.83383524e-01 1.83896154e-01 1.84408784e-01 1.84921414e-01 1.85434043e-01 1.85946673e-01 1.86459303e-01 1.86971918e-01 1.87484547e-01 1.87997177e-01 1.88509807e-01 1.89022437e-01 1.89535066e-01 1.90047696e-01 1.90560326e-01 1.91072956e-01 1.91585571e-01 1.92098200e-01 1.92610830e-01 1.93123460e-01 1.93636090e-01 1.94148719e-01 1.94661349e-01 1.95173979e-01 1.95686609e-01 1.96199223e-01 1.96711853e-01 1.97224483e-01 1.97737113e-01 1.98249742e-01 1.98762372e-01 1.99275002e-01 1.99787632e-01 2.00300246e-01 2.00812876e-01 2.01325506e-01 2.01838136e-01 2.02350765e-01 2.02863395e-01 2.03376025e-01 2.03888655e-01 2.04401284e-01 2.04913899e-01 2.05426529e-01 2.05939159e-01 2.06451789e-01 2.06964418e-01 2.07477048e-01 2.07989678e-01 2.08502308e-01 2.09014937e-01 2.09527552e-01 2.10040182e-01 2.10552812e-01 2.11065441e-01 2.11578071e-01 2.12090701e-01 2.12603331e-01 2.13115960e-01 2.13628590e-01 2.14141205e-01 2.14653835e-01 2.15166464e-01 2.15679094e-01 2.16191724e-01 2.16704354e-01 2.17216983e-01 2.17729613e-01 2.18242228e-01 2.18754858e-01 2.19267488e-01 2.19780117e-01 2.20292747e-01 2.20805377e-01 2.21318007e-01 2.21830636e-01 2.22343266e-01 2.22855881e-01 2.23368511e-01 2.23881140e-01 2.24393770e-01 2.24906400e-01 2.25419030e-01 2.25931659e-01 2.26444289e-01 2.26956919e-01 2.27469534e-01 2.27982163e-01 2.28494793e-01 2.29007423e-01 2.29520053e-01 2.30032682e-01 2.30545312e-01 2.31057942e-01 2.31570557e-01 2.32083187e-01 2.32595816e-01 2.33108446e-01 2.33621076e-01 2.34133705e-01 2.34646335e-01 2.35158965e-01 2.35671595e-01 2.36184210e-01 2.36696839e-01 2.37209469e-01 2.37722099e-01 2.38234729e-01 2.38747358e-01 2.39259988e-01 2.39772618e-01 2.40285248e-01 2.40797862e-01 2.41310492e-01 2.41823122e-01 2.42335752e-01 2.42848381e-01 2.43361011e-01 2.43873641e-01 2.44386271e-01 2.44898900e-01 2.45411515e-01 2.45924145e-01 2.46436775e-01 2.46949404e-01 2.47462034e-01 2.47974664e-01 2.48487294e-01 2.48999923e-01 2.49512538e-01 2.50025183e-01 2.50537813e-01 2.51050442e-01 2.51563072e-01 2.52075672e-01 2.52588302e-01 2.53100932e-01 2.53613561e-01 2.54126191e-01 2.54638821e-01 2.55151451e-01 2.55664080e-01 2.56176710e-01 2.56689340e-01 2.57201970e-01 2.57714599e-01 2.58227229e-01 2.58739859e-01 2.59252489e-01 2.59765118e-01 2.60277748e-01 2.60790348e-01 2.61302978e-01 2.61815608e-01 2.62328237e-01 2.62840867e-01 2.63353497e-01 2.63866127e-01 2.64378756e-01 2.64891386e-01 2.65404016e-01 2.65916646e-01 2.66429275e-01 2.66941905e-01 2.67454535e-01 2.67967165e-01 2.68479794e-01 2.68992424e-01 2.69505054e-01 2.70017654e-01 2.70530283e-01 2.71042913e-01 2.71555543e-01 2.72068173e-01 2.72580802e-01 2.73093432e-01 2.73606062e-01 2.74118692e-01 2.74631321e-01 2.75143951e-01 2.75656581e-01 2.76169211e-01 2.76681840e-01 2.77194470e-01 2.77707100e-01 2.78219730e-01 2.78732330e-01 2.79244959e-01 2.79757589e-01 2.80270219e-01 2.80782849e-01 2.81295478e-01 2.81808108e-01 2.82320738e-01 2.82833368e-01 2.83345997e-01 2.83858627e-01 2.84371257e-01 2.84883887e-01 2.85396516e-01 2.85909146e-01 2.86421776e-01 2.86934406e-01 2.87447035e-01 2.87959635e-01 2.88472265e-01 2.88984895e-01 2.89497524e-01 2.90010154e-01 2.90522784e-01 2.91035414e-01 2.91548043e-01 2.92060673e-01 2.92573303e-01 2.93085933e-01 2.93598562e-01 2.94111192e-01 2.94623822e-01 2.95136452e-01 2.95649081e-01 2.96161711e-01 2.96674311e-01 2.97186941e-01 2.97699571e-01 2.98212200e-01 2.98724830e-01 2.99237460e-01 2.99750090e-01 3.00262719e-01 3.00775349e-01 3.01287979e-01 3.01800609e-01 3.02313238e-01 3.02825868e-01 3.03338498e-01 3.03851128e-01 3.04363757e-01 3.04876387e-01 3.05389017e-01 3.05901617e-01 3.06414247e-01 3.06926876e-01 3.07439506e-01 3.07952136e-01 3.08464766e-01 3.08977395e-01 3.09490025e-01 3.10002655e-01 3.10515285e-01 3.11027914e-01 3.11540544e-01 3.12053174e-01 3.12565804e-01 3.13078433e-01 3.13591063e-01 3.14103693e-01 3.14616293e-01 3.15128922e-01 3.15641552e-01 3.16154182e-01 3.16666812e-01 3.17179441e-01 3.17692071e-01 3.18204701e-01 3.18717331e-01 3.19229960e-01 3.19742590e-01 3.20255220e-01 3.20767850e-01 3.21280479e-01 3.21793109e-01 3.22305739e-01 3.22818369e-01 3.23330998e-01 3.23843598e-01 3.24356228e-01 3.24868858e-01 3.25381488e-01 3.25894117e-01 3.26406747e-01 3.26919377e-01 3.27432007e-01 3.27944636e-01 3.28457266e-01 3.28969896e-01 3.29482526e-01 3.29995155e-01 3.30507785e-01 3.31020415e-01 3.31533045e-01 3.32045674e-01 3.32558274e-01 3.33070904e-01 3.33583534e-01 3.34096164e-01 3.34608793e-01 3.35121423e-01 3.35634053e-01 3.36146683e-01 3.36659312e-01 3.37171942e-01 3.37684572e-01 3.38197201e-01 3.38709831e-01 3.39222461e-01 3.39735091e-01 3.40247720e-01 3.40760350e-01 3.41272980e-01 3.41785580e-01 3.42298210e-01 3.42810839e-01 3.43323469e-01 3.43836099e-01 3.44348729e-01 3.44861358e-01 3.45373988e-01 3.45886618e-01 3.46399248e-01 3.46911877e-01 3.47424507e-01 3.47937137e-01 3.48449767e-01 3.48962396e-01 3.49475026e-01 3.49987656e-01 3.50500256e-01 3.51012886e-01 3.51525515e-01 3.52038145e-01 3.52550775e-01 3.53063405e-01 3.53576034e-01 3.54088664e-01 3.54601294e-01 3.55113924e-01 3.55626553e-01 3.56139183e-01 3.56651813e-01 3.57164443e-01 3.57677072e-01 3.58189702e-01 3.58702332e-01 3.59214962e-01 3.59727561e-01 3.60240191e-01 3.60752821e-01 3.61265451e-01 3.61778080e-01 3.62290710e-01 3.62803340e-01 3.63315970e-01 3.63828599e-01 3.64341229e-01 3.64853859e-01 3.65366489e-01 3.65879118e-01 3.66391748e-01 3.66904378e-01 3.67417008e-01 3.67929637e-01 3.68442237e-01 3.68954867e-01 3.69467497e-01 3.69980127e-01 3.70492756e-01 3.71005386e-01 3.71518016e-01 3.72030646e-01 3.72543275e-01 3.73055905e-01 3.73568535e-01 3.74081165e-01 3.74593794e-01 3.75106424e-01 3.75619054e-01 3.76131684e-01 3.76644313e-01 3.77156943e-01 3.77669543e-01 3.78182173e-01 3.78694803e-01 3.79207432e-01 3.79720062e-01 3.80232692e-01 3.80745322e-01 3.81257951e-01 3.81770581e-01 3.82283211e-01 3.82795841e-01 3.83308470e-01 3.83821100e-01 3.84333730e-01 3.84846359e-01 3.85358989e-01 3.85871619e-01 3.86384219e-01 3.86896849e-01 3.87409478e-01 3.87922108e-01 3.88434738e-01 3.88947368e-01 3.89459997e-01 3.89972627e-01 3.90485257e-01 3.90997887e-01 3.91510516e-01 3.92023146e-01 3.92535776e-01 3.93048406e-01 3.93561035e-01 3.94073665e-01 3.94586295e-01 3.95098925e-01 3.95611525e-01 3.96124154e-01 3.96636784e-01 3.97149414e-01 3.97662044e-01 3.98174673e-01 3.98687303e-01 3.99199933e-01 3.99712563e-01 4.00225192e-01 4.00737822e-01 4.01250452e-01 4.01763082e-01 4.02275711e-01 4.02788341e-01 4.03300971e-01 4.03813601e-01 4.04326200e-01 4.04838830e-01 4.05351460e-01 4.05864090e-01 4.06376719e-01 4.06889349e-01 4.07401979e-01 4.07914609e-01 4.08427238e-01 4.08939868e-01 4.09452498e-01 4.09965128e-01 4.10477757e-01 4.10990387e-01 4.11503017e-01 4.12015647e-01 4.12528276e-01 4.13040876e-01 4.13553506e-01 4.14066136e-01 4.14578766e-01 4.15091395e-01 4.15604025e-01 4.16116655e-01 4.16629285e-01 4.17141914e-01 4.17654544e-01 4.18167174e-01 4.18679804e-01 4.19192433e-01 4.19705063e-01 4.20217693e-01 4.20730323e-01 4.21242952e-01 4.21755582e-01 4.22268182e-01 4.22780812e-01 4.23293442e-01 4.23806071e-01 4.24318701e-01 4.24831331e-01 4.25343961e-01 4.25856590e-01 4.26369220e-01 4.26881850e-01 4.27394480e-01 4.27907109e-01 4.28419739e-01 4.28932369e-01 4.29444999e-01 4.29957628e-01 4.30470258e-01 4.30982858e-01 4.31495488e-01 4.32008117e-01 4.32520747e-01 4.33033377e-01 4.33546007e-01 4.34058636e-01 4.34571266e-01 4.35083896e-01 4.35596526e-01 4.36109155e-01 4.36621785e-01 4.37134415e-01 4.37647045e-01 4.38159674e-01 4.38672304e-01 4.39184934e-01 4.39697564e-01 4.40210164e-01 4.40722793e-01 4.41235423e-01 4.41748053e-01 4.42260683e-01 4.42773312e-01 4.43285942e-01 4.43798572e-01 4.44311202e-01 4.44823831e-01 4.45336461e-01 4.45849091e-01 4.46361721e-01 4.46874350e-01 4.47386980e-01 4.47899610e-01 4.48412240e-01 4.48924839e-01 4.49437469e-01 4.49950099e-01 4.50462729e-01 4.50975358e-01 4.51487988e-01 4.52000618e-01 4.52513248e-01 4.53025877e-01 4.53538507e-01 4.54051137e-01 4.54563767e-01 4.55076396e-01 4.55589026e-01 4.56101656e-01 4.56614286e-01 4.57126915e-01 4.57639545e-01 4.58152145e-01 4.58664775e-01 4.59177405e-01 4.59690034e-01 4.60202664e-01 4.60715294e-01 4.61227924e-01 4.61740553e-01 4.62253183e-01 4.62765813e-01 4.63278443e-01 4.63791072e-01 4.64303702e-01 4.64816332e-01 4.65328962e-01 4.65841591e-01 4.66354221e-01 4.66866821e-01 4.67379451e-01 4.67892081e-01 4.68404710e-01 4.68917340e-01 4.69429970e-01 4.69942600e-01 4.70455229e-01 4.70967859e-01 4.71480489e-01 4.71993119e-01 4.72505748e-01 4.73018378e-01 4.73531008e-01 4.74043638e-01 4.74556267e-01 4.75068897e-01 4.75581527e-01 4.76094127e-01 4.76606756e-01 4.77119386e-01 4.77632016e-01 4.78144646e-01 4.78657275e-01 4.79169905e-01 4.79682535e-01 4.80195165e-01 4.80707794e-01 4.81220424e-01 4.81733054e-01 4.82245684e-01 4.82758313e-01 4.83270943e-01 4.83783573e-01 4.84296203e-01 4.84808803e-01 4.85321432e-01 4.85834062e-01 4.86346692e-01 4.86859322e-01 4.87371951e-01 4.87884581e-01 4.88397211e-01 4.88909841e-01 4.89422470e-01 4.89935100e-01 4.90447730e-01 4.90960360e-01 4.91472989e-01 4.91985619e-01 4.92498249e-01 4.93010879e-01 4.93523508e-01 4.94036108e-01 4.94548738e-01 4.95061368e-01 4.95573997e-01 4.96086627e-01 4.96599257e-01 4.97111887e-01 4.97624516e-01 4.98137146e-01 4.98649776e-01 4.99162406e-01 4.99675035e-01 5.00187635e-01 5.00700295e-01 5.01212895e-01 5.01725554e-01 5.02238154e-01 5.02750814e-01 5.03263414e-01 5.03776073e-01 5.04288673e-01 5.04801333e-01 5.05313933e-01 5.05826592e-01 5.06339192e-01 5.06851852e-01 5.07364452e-01 5.07877052e-01 5.08389711e-01 5.08902311e-01 5.09414971e-01 5.09927571e-01 5.10440230e-01 5.10952830e-01 5.11465490e-01 5.11978090e-01 5.12490749e-01 5.13003349e-01 5.13516009e-01 5.14028609e-01 5.14541268e-01 5.15053868e-01 5.15566528e-01 5.16079128e-01 5.16591728e-01 5.17104387e-01 5.17616987e-01 5.18129647e-01 5.18642247e-01 5.19154906e-01 5.19667506e-01 5.20180166e-01 5.20692766e-01 5.21205425e-01 5.21718025e-01 5.22230685e-01 5.22743285e-01 5.23255944e-01 5.23768544e-01 5.24281204e-01 5.24793804e-01 5.25306404e-01 5.25819063e-01 5.26331663e-01 5.26844323e-01 5.27356923e-01 5.27869582e-01 5.28382182e-01 5.28894842e-01 5.29407442e-01 5.29920101e-01 5.30432701e-01 5.30945361e-01 5.31457961e-01 5.31970620e-01 5.32483220e-01 5.32995880e-01 5.33508480e-01 5.34021080e-01 5.34533739e-01 5.35046339e-01 5.35558999e-01 5.36071599e-01 5.36584258e-01 5.37096858e-01 5.37609518e-01 5.38122118e-01 5.38634777e-01 5.39147377e-01 5.39660037e-01 5.40172637e-01 5.40685296e-01 5.41197896e-01 5.41710556e-01 5.42223155e-01 5.42735815e-01 5.43248415e-01 5.43761015e-01 5.44273674e-01 5.44786274e-01 5.45298934e-01 5.45811534e-01 5.46324193e-01 5.46836793e-01 5.47349453e-01 5.47862053e-01 5.48374712e-01 5.48887312e-01 5.49399972e-01 5.49912572e-01 5.50425231e-01 5.50937831e-01 5.51450491e-01 5.51963091e-01 5.52475691e-01 5.52988350e-01 5.53500950e-01 5.54013610e-01 5.54526210e-01 5.55038869e-01 5.55551469e-01 5.56064129e-01 5.56576729e-01 5.57089388e-01 5.57601988e-01 5.58114648e-01 5.58627248e-01 5.59139907e-01 5.59652507e-01 5.60165167e-01 5.60677767e-01 5.61190367e-01 5.61703026e-01 5.62215626e-01 5.62728286e-01 5.63240886e-01 5.63753545e-01 5.64266145e-01 5.64778805e-01 5.65291405e-01 5.65804064e-01 5.66316664e-01 5.66829324e-01 5.67341924e-01 5.67854583e-01 5.68367183e-01 5.68879843e-01 5.69392443e-01 5.69905043e-01 5.70417702e-01 5.70930302e-01 5.71442962e-01 5.71955562e-01 5.72468221e-01 5.72980821e-01 5.73493481e-01 5.74006081e-01 5.74518740e-01 5.75031340e-01 5.75544000e-01 5.76056600e-01 5.76569259e-01 5.77081859e-01 5.77594519e-01 5.78107119e-01 5.78619778e-01 5.79132378e-01 5.79644978e-01 5.80157638e-01 5.80670238e-01 5.81182897e-01 5.81695497e-01 5.82208157e-01 5.82720757e-01 5.83233416e-01 5.83746016e-01 5.84258676e-01 5.84771276e-01 5.85283935e-01 5.85796535e-01 5.86309195e-01 5.86821795e-01 5.87334454e-01 5.87847054e-01 5.88359654e-01 5.88872313e-01 5.89384913e-01 5.89897573e-01 5.90410173e-01 5.90922832e-01 5.91435432e-01 5.91948092e-01 5.92460692e-01 5.92973351e-01 5.93485951e-01 5.93998611e-01 5.94511211e-01 5.95023870e-01 5.95536470e-01 5.96049130e-01 5.96561730e-01 5.97074330e-01 5.97586989e-01 5.98099589e-01 5.98612249e-01 5.99124849e-01 5.99637508e-01 6.00150108e-01 6.00662768e-01 6.01175368e-01 6.01688027e-01 6.02200627e-01 6.02713287e-01 6.03225887e-01 6.03738546e-01 6.04251146e-01 6.04763806e-01 6.05276406e-01 6.05789006e-01 6.06301665e-01 6.06814265e-01 6.07326925e-01 6.07839525e-01 6.08352184e-01 6.08864784e-01 6.09377444e-01 6.09890044e-01 6.10402703e-01 6.10915303e-01 6.11427963e-01 6.11940563e-01 6.12453222e-01 6.12965822e-01 6.13478482e-01 6.13991082e-01 6.14503741e-01 6.15016341e-01 6.15528941e-01 6.16041601e-01 6.16554201e-01 6.17066860e-01 6.17579460e-01 6.18092120e-01 6.18604720e-01 6.19117379e-01 6.19629979e-01 6.20142639e-01 6.20655239e-01 6.21167898e-01 6.21680498e-01 6.22193158e-01 6.22705758e-01 6.23218417e-01 6.23731017e-01 6.24243617e-01 6.24756277e-01 6.25268877e-01 6.25781536e-01 6.26294136e-01 6.26806796e-01 6.27319396e-01 6.27832055e-01 6.28344655e-01 6.28857315e-01 6.29369915e-01 6.29882574e-01 6.30395174e-01 6.30907834e-01 6.31420434e-01 6.31933093e-01 6.32445693e-01 6.32958293e-01 6.33470953e-01 6.33983552e-01 6.34496212e-01 6.35008812e-01 6.35521472e-01 6.36034071e-01 6.36546731e-01 6.37059331e-01 6.37571990e-01 6.38084590e-01 6.38597250e-01 6.39109850e-01 6.39622509e-01 6.40135109e-01 6.40647769e-01 6.41160369e-01 6.41672969e-01 6.42185628e-01 6.42698228e-01 6.43210888e-01 6.43723488e-01 6.44236147e-01 6.44748747e-01 6.45261407e-01 6.45774007e-01 6.46286666e-01 6.46799266e-01 6.47311926e-01 6.47824526e-01 6.48337185e-01 6.48849785e-01 6.49362445e-01 6.49875045e-01 6.50387704e-01 6.50900304e-01 6.51412904e-01 6.51925564e-01 6.52438164e-01 6.52950823e-01 6.53463423e-01 6.53976083e-01 6.54488683e-01 6.55001342e-01 6.55513942e-01 6.56026602e-01 6.56539202e-01 6.57051861e-01 6.57564461e-01 6.58077121e-01 6.58589721e-01 6.59102380e-01 6.59614980e-01 6.60127580e-01 6.60640240e-01 6.61152840e-01 6.61665499e-01 6.62178099e-01 6.62690759e-01 6.63203359e-01 6.63716018e-01 6.64228618e-01 6.64741278e-01 6.65253878e-01 6.65766537e-01 6.66279137e-01 6.66791797e-01 6.67304397e-01 6.67817056e-01 6.68329656e-01 6.68842256e-01 6.69354916e-01 6.69867516e-01 6.70380175e-01 6.70892775e-01 6.71405435e-01 6.71918035e-01 6.72430694e-01 6.72943294e-01 6.73455954e-01 6.73968554e-01 6.74481213e-01 6.74993813e-01 6.75506473e-01 6.76019073e-01 6.76531732e-01 6.77044332e-01 6.77556932e-01 6.78069592e-01 6.78582191e-01 6.79094851e-01 6.79607451e-01 6.80120111e-01 6.80632710e-01 6.81145370e-01 6.81657970e-01 6.82170630e-01 6.82683229e-01 6.83195889e-01 6.83708489e-01 6.84221148e-01 6.84733748e-01 6.85246408e-01 6.85759008e-01 6.86271667e-01 6.86784267e-01 6.87296867e-01 6.87809527e-01 6.88322127e-01 6.88834786e-01 6.89347386e-01 6.89860046e-01 6.90372646e-01 6.90885305e-01 6.91397905e-01 6.91910565e-01 6.92423165e-01 6.92935824e-01 6.93448424e-01 6.93961084e-01 6.94473684e-01 6.94986343e-01 6.95498943e-01 6.96011543e-01 6.96524203e-01 6.97036803e-01 6.97549462e-01 6.98062062e-01 6.98574722e-01 6.99087322e-01 6.99599981e-01 7.00112581e-01 7.00625241e-01 7.01137841e-01 7.01650500e-01 7.02163100e-01 7.02675760e-01 7.03188360e-01 7.03701019e-01 7.04213619e-01 7.04726219e-01 7.05238879e-01 7.05751479e-01 7.06264138e-01 7.06776738e-01 7.07289398e-01 7.07801998e-01 7.08314657e-01 7.08827257e-01 7.09339917e-01 7.09852517e-01 7.10365176e-01 7.10877776e-01 7.11390436e-01 7.11903036e-01 7.12415695e-01 7.12928295e-01 7.13440895e-01 7.13953555e-01 7.14466155e-01 7.14978814e-01 7.15491414e-01 7.16004074e-01 7.16516674e-01 7.17029333e-01 7.17541933e-01 7.18054593e-01 7.18567193e-01 7.19079852e-01 7.19592452e-01 7.20105112e-01 7.20617712e-01 7.21130371e-01 7.21642971e-01 7.22155631e-01 7.22668231e-01 7.23180830e-01 7.23693490e-01 7.24206090e-01 7.24718750e-01 7.25231349e-01 7.25744009e-01 7.26256609e-01 7.26769269e-01 7.27281868e-01 7.27794528e-01 7.28307128e-01 7.28819788e-01 7.29332387e-01 7.29845047e-01 7.30357647e-01 7.30870306e-01 7.31382906e-01 7.31895506e-01 7.32408166e-01 7.32920766e-01 7.33433425e-01 7.33946025e-01 7.34458685e-01 7.34971285e-01 7.35483944e-01 7.35996544e-01 7.36509204e-01 7.37021804e-01 7.37534463e-01 7.38047063e-01 7.38559723e-01 7.39072323e-01 7.39584982e-01 7.40097582e-01 7.40610182e-01 7.41122842e-01 7.41635442e-01 7.42148101e-01 7.42660701e-01 7.43173361e-01 7.43685961e-01 7.44198620e-01 7.44711220e-01 7.45223880e-01 7.45736480e-01 7.46249139e-01 7.46761739e-01 7.47274399e-01 7.47786999e-01 7.48299658e-01 7.48812258e-01 7.49324858e-01 7.49837518e-01 7.50350118e-01 7.50862777e-01 7.51375377e-01 7.51888037e-01 7.52400637e-01 7.52913296e-01 7.53425896e-01 7.53938556e-01 7.54451156e-01 7.54963815e-01 7.55476415e-01 7.55989075e-01 7.56501675e-01 7.57014334e-01 7.57526934e-01 7.58039594e-01 7.58552194e-01 7.59064794e-01 7.59577453e-01 7.60090053e-01 7.60602713e-01 7.61115313e-01 7.61627972e-01 7.62140572e-01 7.62653232e-01 7.63165832e-01 7.63678491e-01 7.64191091e-01 7.64703751e-01 7.65216351e-01 7.65729010e-01 7.66241610e-01 7.66754270e-01 7.67266870e-01 7.67779469e-01 7.68292129e-01 7.68804729e-01 7.69317389e-01 7.69829988e-01 7.70342648e-01 7.70855248e-01 7.71367908e-01 7.71880507e-01 7.72393167e-01 7.72905767e-01 7.73418427e-01 7.73931026e-01 7.74443686e-01 7.74956286e-01 7.75468946e-01 7.75981545e-01 7.76494145e-01 7.77006805e-01 7.77519405e-01 7.78032064e-01 7.78544664e-01 7.79057324e-01 7.79569924e-01 7.80082583e-01 7.80595183e-01 7.81107843e-01 7.81620443e-01 7.82133102e-01 7.82645702e-01 7.83158362e-01 7.83670962e-01 7.84183621e-01 7.84696221e-01 7.85208821e-01 7.85721481e-01 7.86234081e-01 7.86746740e-01 7.87259340e-01 7.87772000e-01 7.88284600e-01 7.88797259e-01 7.89309859e-01 7.89822519e-01 7.90335119e-01 7.90847778e-01 7.91360378e-01 7.91873038e-01 7.92385638e-01 7.92898297e-01 7.93410897e-01 7.93923497e-01 7.94436157e-01 7.94948757e-01 7.95461416e-01 7.95974016e-01 7.96486676e-01 7.96999276e-01 7.97511935e-01 7.98024535e-01 7.98537195e-01 7.99049795e-01 7.99562454e-01 8.00075054e-01 8.00587714e-01 8.01100314e-01 8.01612973e-01 8.02125573e-01 8.02638233e-01 8.03150833e-01 8.03663433e-01 8.04176092e-01 8.04688692e-01 8.05201352e-01 8.05713952e-01 8.06226611e-01 8.06739211e-01 8.07251871e-01 8.07764471e-01 8.08277130e-01 8.08789730e-01 8.09302390e-01 8.09814990e-01 8.10327649e-01 8.10840249e-01 8.11352909e-01 8.11865509e-01 8.12378109e-01 8.12890768e-01 8.13403368e-01 8.13916028e-01 8.14428627e-01 8.14941287e-01 8.15453887e-01 8.15966547e-01 8.16479146e-01 8.16991806e-01 8.17504406e-01 8.18017066e-01 8.18529665e-01 8.19042325e-01 8.19554925e-01 8.20067585e-01 8.20580184e-01 8.21092784e-01 8.21605444e-01 8.22118044e-01 8.22630703e-01 8.23143303e-01 8.23655963e-01 8.24168563e-01 8.24681222e-01 8.25193822e-01 8.25706482e-01 8.26219082e-01 8.26731741e-01 8.27244341e-01 8.27757001e-01 8.28269601e-01 8.28782260e-01 8.29294860e-01 8.29807460e-01 8.30320120e-01 8.30832720e-01 8.31345379e-01 8.31857979e-01 8.32370639e-01 8.32883239e-01 8.33395898e-01 8.33908498e-01 8.34421158e-01 8.34933758e-01 8.35446417e-01 8.35959017e-01 8.36471677e-01 8.36984277e-01 8.37496936e-01 8.38009536e-01 8.38522196e-01 8.39034796e-01 8.39547396e-01 8.40060055e-01 8.40572655e-01 8.41085315e-01 8.41597915e-01 8.42110574e-01 8.42623174e-01 8.43135834e-01 8.43648434e-01 8.44161093e-01 8.44673693e-01 8.45186353e-01 8.45698953e-01 8.46211612e-01 8.46724212e-01 8.47236872e-01 8.47749472e-01 8.48262072e-01 8.48774731e-01 8.49287331e-01 8.49799991e-01 8.50312591e-01 8.50825250e-01 8.51337850e-01 8.51850510e-01 8.52363110e-01 8.52875769e-01 8.53388369e-01 8.53901029e-01 8.54413629e-01 8.54926288e-01 8.55438888e-01 8.55951548e-01 8.56464148e-01 8.56976748e-01 8.57489407e-01 8.58002007e-01 8.58514667e-01 8.59027267e-01 8.59539926e-01 8.60052526e-01 8.60565186e-01 8.61077785e-01 8.61590445e-01 8.62103045e-01 8.62615705e-01 8.63128304e-01 8.63640964e-01 8.64153564e-01 8.64666224e-01 8.65178823e-01 8.65691423e-01 8.66204083e-01 8.66716683e-01 8.67229342e-01 8.67741942e-01 8.68254602e-01 8.68767202e-01 8.69279861e-01 8.69792461e-01 8.70305121e-01 8.70817721e-01 8.71330380e-01 8.71842980e-01 8.72355640e-01 8.72868240e-01 8.73380899e-01 8.73893499e-01 8.74406159e-01 8.74918759e-01 8.75431359e-01 8.75944018e-01 8.76456618e-01 8.76969278e-01 8.77481878e-01 8.77994537e-01 8.78507137e-01 8.79019797e-01 8.79532397e-01 8.80045056e-01 8.80557656e-01 8.81070316e-01 8.81582916e-01 8.82095575e-01 8.82608175e-01 8.83120835e-01 8.83633435e-01 8.84146035e-01 8.84658694e-01 8.85171294e-01 8.85683954e-01 8.86196554e-01 8.86709213e-01 8.87221813e-01 8.87734473e-01 8.88247073e-01 8.88759732e-01 8.89272332e-01 8.89784992e-01 8.90297592e-01 8.90810251e-01 8.91322851e-01 8.91835511e-01 8.92348111e-01 8.92860711e-01 8.93373370e-01 8.93885970e-01 8.94398630e-01 8.94911230e-01 8.95423889e-01 8.95936489e-01 8.96449149e-01 8.96961749e-01 8.97474408e-01 8.97987008e-01 8.98499668e-01 8.99012268e-01 8.99524927e-01 9.00037527e-01 9.00550187e-01 9.01062787e-01 9.01575387e-01 9.02088046e-01 9.02600646e-01 9.03113306e-01 9.03625906e-01 9.04138565e-01 9.04651165e-01 9.05163825e-01 9.05676425e-01 9.06189084e-01 9.06701684e-01 9.07214344e-01 9.07726943e-01 9.08239603e-01 9.08752203e-01 9.09264863e-01 9.09777462e-01 9.10290122e-01 9.10802722e-01 9.11315322e-01 9.11827981e-01 9.12340581e-01 9.12853241e-01 9.13365841e-01 9.13878500e-01 9.14391100e-01 9.14903760e-01 9.15416360e-01 9.15929019e-01 9.16441619e-01 9.16954279e-01 9.17466879e-01 9.17979538e-01 9.18492138e-01 9.19004798e-01 9.19517398e-01 9.20029998e-01 9.20542657e-01 9.21055257e-01 9.21567917e-01 9.22080517e-01 9.22593176e-01 9.23105776e-01 9.23618436e-01 9.24131036e-01 9.24643695e-01 9.25156295e-01 9.25668955e-01 9.26181555e-01 9.26694214e-01 9.27206814e-01 9.27719474e-01 9.28232074e-01 9.28744674e-01 9.29257333e-01 9.29769933e-01 9.30282593e-01 9.30795193e-01 9.31307852e-01 9.31820452e-01 9.32333112e-01 9.32845712e-01 9.33358371e-01 9.33870971e-01 9.34383631e-01 9.34896231e-01 9.35408890e-01 9.35921490e-01 9.36434150e-01 9.36946750e-01 9.37459350e-01 9.37972009e-01 9.38484609e-01 9.38997269e-01 9.39509869e-01 9.40022528e-01 9.40535128e-01 9.41047788e-01 9.41560388e-01 9.42073047e-01 9.42585647e-01 9.43098307e-01 9.43610907e-01 9.44123566e-01 9.44636166e-01 9.45148826e-01 9.45661426e-01 9.46174085e-01 9.46686685e-01 9.47199285e-01 9.47711945e-01 9.48224545e-01 9.48737204e-01 9.49249804e-01 9.49762464e-01 9.50275064e-01 9.50787723e-01 9.51300323e-01 9.51812983e-01 9.52325583e-01 9.52838242e-01 9.53350842e-01 9.53863502e-01 9.54376101e-01 9.54888761e-01 9.55401361e-01 9.55913961e-01 9.56426620e-01 9.56939220e-01 9.57451880e-01 9.57964480e-01 9.58477139e-01 9.58989739e-01 9.59502399e-01 9.60014999e-01 9.60527658e-01 9.61040258e-01 9.61552918e-01 9.62065518e-01 9.62578177e-01 9.63090777e-01 9.63603437e-01 9.64116037e-01 9.64628637e-01 9.65141296e-01 9.65653896e-01 9.66166556e-01 9.66679156e-01 9.67191815e-01 9.67704415e-01 9.68217075e-01 9.68729675e-01 9.69242334e-01 9.69754934e-01 9.70267594e-01 9.70780194e-01 9.71292853e-01 9.71805453e-01 9.72318113e-01 9.72830713e-01 9.73343313e-01 9.73855972e-01 9.74368572e-01 9.74881232e-01 9.75393832e-01 9.75906491e-01 9.76419091e-01 9.76931751e-01 9.77444351e-01 9.77957010e-01 9.78469610e-01 9.78982270e-01 9.79494870e-01 9.80007529e-01 9.80520129e-01 9.81032789e-01 9.81545389e-01 9.82058048e-01 9.82570648e-01 9.83083248e-01 9.83595908e-01 9.84108508e-01 9.84621167e-01 9.85133767e-01 9.85646427e-01 9.86159027e-01 9.86671686e-01 9.87184286e-01 9.87696946e-01 9.88209546e-01 9.88722205e-01 9.89234805e-01 9.89747465e-01 9.90260065e-01 9.90772724e-01 9.91285324e-01 9.91797924e-01 9.92310584e-01 9.92823184e-01 9.93335843e-01 9.93848443e-01 9.94361103e-01 9.94873703e-01 9.95386362e-01 9.95898962e-01 9.96411622e-01 9.96924222e-01 9.97436881e-01 9.97949481e-01 9.98462141e-01 9.98974741e-01 9.99487400e-01 1.00000000e+00 
            </Histogram>
            <HistogramBinning NBins="1951">
              -3.37699103e+00 -3.37689114e+00 -3.23720384e+00 -3.18200183e+00 -3.14902115e+00 -3.12887859e+00 -3.10702491e+00 -3.08442950e+00 -3.07357192e+00 -3.05102110e+00 -3.03495908e+00 -3.02699590e+00 -3.01864243e+00 -3.00562692e+00 -2.98849058e+00 -2.97725868e+00 -2.96588683e+00 -2.95557356e+00 -2.94070649e+00 -2.93278217e+00 -2.92480755e+00 -2.91369033e+00 -2.90648985e+00 -2.89943719e+00 -2.88971090e+00 -2.88369942e+00 -2.87498808e+00 -2.86396003e+00 -2.85450673e+00 -2.84667826e+00 -2.83958340e+00 -2.83072782e+00 -2.82420039e+00 -2.81712174e+00 -2.81238818e+00 -2.80834532e+00 -2.80236578e+00 -2.79484868e+00 -2.78824806e+00 -2.78242135e+00 -2.77225614e+00 -2.76530218e+00 -2.76141882e+00 -2.75808263e+00 -2.75360227e+00 -2.75015759e+00 -2.74377465e+00 -2.73923993e+00 -2.73357224e+00 -2.72631741e+00 -2.71977115e+00 -2.71524262e+00 -2.71035099e+00 -2.70506978e+00 -2.70073938e+00 -2.69656301e+00 -2.69288969e+00 -2.68924522e+00 -2.68480444e+00 -2.68008757e+00 -2.67570066e+00 -2.67102146e+00 -2.66893244e+00 -2.66312003e+00 -2.65789461e+00 -2.65445471e+00 -2.64854145e+00 -2.64493251e+00 -2.63831282e+00 -2.63111067e+00 -2.62713981e+00 -2.62083983e+00 -2.61678052e+00 -2.61005831e+00 -2.60330129e+00 -2.59792614e+00 -2.59457254e+00 -2.59064031e+00 -2.58620596e+00 -2.58181882e+00 -2.57729936e+00 -2.57250690e+00 -2.56956625e+00 -2.56566381e+00 -2.56197762e+00 -2.55771613e+00 -2.55275083e+00 -2.55023718e+00 -2.54584455e+00 -2.54191160e+00 -2.53559804e+00 -2.53234482e+00 -2.52780366e+00 -2.52208614e+00 -2.51872301e+00 -2.51364160e+00 -2.51063132e+00 -2.50558090e+00 -2.50161576e+00 -2.49741292e+00 -2.49337697e+00 -2.48957491e+00 -2.48583603e+00 -2.48205638e+00 -2.47618365e+00 -2.47105336e+00 -2.46671700e+00 -2.46375418e+00 -2.46068311e+00 -2.45615411e+00 -2.45312643e+00 -2.44753075e+00 -2.44425726e+00 -2.44089198e+00 -2.43807888e+00 -2.43473005e+00 -2.42949557e+00 -2.42718601e+00 -2.42186475e+00 -2.41482282e+00 -2.41091037e+00 -2.40619922e+00 -2.40390658e+00 -2.40060711e+00 -2.39693403e+00 -2.39303827e+00 -2.38930535e+00 -2.38638377e+00 -2.38336754e+00 -2.38009524e+00 -2.37635684e+00 -2.37263107e+00 -2.36848664e+00 -2.36353421e+00 -2.35981345e+00 -2.35690904e+00 -2.35102892e+00 -2.34745336e+00 -2.34351301e+00 -2.33906102e+00 -2.33386993e+00 -2.33042932e+00 -2.32677937e+00 -2.32273364e+00 -2.31983304e+00 -2.31683826e+00 -2.31366420e+00 -2.31215549e+00 -2.30923343e+00 -2.30625200e+00 -2.30248260e+00 -2.29961252e+00 -2.29665852e+00 -2.29460192e+00 -2.29042721e+00 -2.28689885e+00 -2.28511119e+00 -2.28254795e+00 -2.27999187e+00 -2.27666712e+00 -2.27343440e+00 -2.27117443e+00 -2.26622534e+00 -2.26268291e+00 -2.25906014e+00 -2.25635576e+00 -2.25307202e+00 -2.25011730e+00 -2.24724412e+00 -2.24463677e+00 -2.24251270e+00 -2.24096966e+00 -2.23785043e+00 -2.23564768e+00 -2.23330235e+00 -2.22970867e+00 -2.22666740e+00 -2.22410583e+00 -2.22158146e+00 -2.21866226e+00 -2.21550679e+00 -2.21304202e+00 -2.20923233e+00 -2.20673704e+00 -2.20366955e+00 -2.20013833e+00 -2.19653726e+00 -2.19394898e+00 -2.19175649e+00 -2.18981051e+00 -2.18679810e+00 -2.18306732e+00 -2.18061662e+00 -2.17748451e+00 -2.17441249e+00 -2.17124796e+00 -2.16950035e+00 -2.16681433e+00 -2.16489220e+00 -2.16274548e+00 -2.16114020e+00 -2.15875053e+00 -2.15657973e+00 -2.15274954e+00 -2.15098286e+00 -2.14811516e+00 -2.14573908e+00 -2.14394140e+00 -2.14179182e+00 -2.13667560e+00 -2.13451314e+00 -2.13237071e+00 -2.12952566e+00 -2.12855268e+00 -2.12621760e+00 -2.12445021e+00 -2.12246346e+00 -2.11895394e+00 -2.11692286e+00 -2.11294293e+00 -2.10916924e+00 -2.10682654e+00 -2.10440588e+00 -2.10298133e+00 -2.09948683e+00 -2.09754634e+00 -2.09390140e+00 -2.09061742e+00 -2.08605123e+00 -2.08382702e+00 -2.08216476e+00 -2.08026409e+00 -2.07830048e+00 -2.07530332e+00 -2.07235885e+00 -2.07027674e+00 -2.06762815e+00 -2.06508279e+00 -2.06283927e+00 -2.06000805e+00 -2.05718589e+00 -2.05344629e+00 -2.05031872e+00 -2.04841208e+00 -2.04540825e+00 -2.04319358e+00 -2.04028940e+00 -2.03827333e+00 -2.03506589e+00 -2.03310251e+00 -2.03110337e+00 -2.02896929e+00 -2.02641630e+00 -2.02358174e+00 -2.02047443e+00 -2.01761222e+00 -2.01512837e+00 -2.01269245e+00 -2.01011181e+00 -2.00721765e+00 -2.00475192e+00 -2.00258541e+00 -2.00000310e+00 -1.99841213e+00 -1.99610233e+00 -1.99324071e+00 -1.99072289e+00 -1.98789299e+00 -1.98556590e+00 -1.98311639e+00 -1.98186624e+00 -1.98019874e+00 -1.97849619e+00 -1.97556794e+00 -1.97253597e+00 -1.96996677e+00 -1.96739125e+00 -1.96472096e+00 -1.96264875e+00 -1.96045363e+00 -1.95814896e+00 -1.95536196e+00 -1.95338857e+00 -1.95185745e+00 -1.94909036e+00 -1.94651103e+00 -1.94464695e+00 -1.94273961e+00 -1.94076240e+00 -1.93884993e+00 -1.93683457e+00 -1.93315029e+00 -1.93177462e+00 -1.92983484e+00 -1.92686760e+00 -1.92507112e+00 -1.92340028e+00 -1.92087042e+00 -1.91776335e+00 -1.91553903e+00 -1.91340399e+00 -1.91029263e+00 -1.90794003e+00 -1.90598571e+00 -1.90318787e+00 -1.90048766e+00 -1.89919174e+00 -1.89715326e+00 -1.89485633e+00 -1.89341843e+00 -1.89160323e+00 -1.88952684e+00 -1.88717830e+00 -1.88573611e+00 -1.88316762e+00 -1.88049710e+00 -1.87881970e+00 -1.87698174e+00 -1.87534750e+00 -1.87263298e+00 -1.87074912e+00 -1.86911583e+00 -1.86710441e+00 -1.86522961e+00 -1.86282158e+00 -1.86117756e+00 -1.85966682e+00 -1.85782468e+00 -1.85637677e+00 -1.85441387e+00 -1.85187232e+00 -1.84981966e+00 -1.84752619e+00 -1.84436285e+00 -1.84199035e+00 -1.83970761e+00 -1.83781230e+00 -1.83585680e+00 -1.83429062e+00 -1.83279943e+00 -1.83032823e+00 -1.82800519e+00 -1.82541490e+00 -1.82375908e+00 -1.82142425e+00 -1.81993473e+00 -1.81705916e+00 -1.81469095e+00 -1.81297123e+00 -1.81079531e+00 -1.80729449e+00 -1.80580962e+00 -1.80439878e+00 -1.80235898e+00 -1.79956043e+00 -1.79760540e+00 -1.79491079e+00 -1.79283345e+00 -1.79101562e+00 -1.78932571e+00 -1.78787136e+00 -1.78530216e+00 -1.78181350e+00 -1.78050029e+00 -1.77889490e+00 -1.77652133e+00 -1.77470636e+00 -1.77129078e+00 -1.76825631e+00 -1.76619768e+00 -1.76498306e+00 -1.76280832e+00 -1.76044953e+00 -1.75839865e+00 -1.75720835e+00 -1.75560272e+00 -1.75414836e+00 -1.75153232e+00 -1.75038779e+00 -1.74812865e+00 -1.74600601e+00 -1.74463272e+00 -1.74244189e+00 -1.74011946e+00 -1.73803079e+00 -1.73646080e+00 -1.73451567e+00 -1.73217773e+00 -1.73003733e+00 -1.72756839e+00 -1.72621739e+00 -1.72441006e+00 -1.72339308e+00 -1.72149384e+00 -1.71942043e+00 -1.71649575e+00 -1.71458125e+00 -1.71167374e+00 -1.70892370e+00 -1.70723212e+00 -1.70556104e+00 -1.70418799e+00 -1.70249248e+00 -1.70022643e+00 -1.69777584e+00 -1.69572914e+00 -1.69378865e+00 -1.69113779e+00 -1.68919241e+00 -1.68717182e+00 -1.68505502e+00 -1.68307650e+00 -1.68141222e+00 -1.67980993e+00 -1.67764151e+00 -1.67472374e+00 -1.67319822e+00 -1.67151570e+00 -1.67046034e+00 -1.66792083e+00 -1.66658115e+00 -1.66302848e+00 -1.66070282e+00 -1.65940487e+00 -1.65670121e+00 -1.65465522e+00 -1.65268087e+00 -1.65113473e+00 -1.64869499e+00 -1.64769650e+00 -1.64579594e+00 -1.64328277e+00 -1.64183640e+00 -1.64049923e+00 -1.63840437e+00 -1.63689864e+00 -1.63434482e+00 -1.63271987e+00 -1.63114083e+00 -1.62843466e+00 -1.62605917e+00 -1.62482595e+00 -1.62365532e+00 -1.62080586e+00 -1.61800659e+00 -1.61615622e+00 -1.61453712e+00 -1.61231208e+00 -1.61086500e+00 -1.60924137e+00 -1.60787308e+00 -1.60596299e+00 -1.60388434e+00 -1.60152042e+00 -1.59986556e+00 -1.59787762e+00 -1.59678650e+00 -1.59538817e+00 -1.59369898e+00 -1.59165180e+00 -1.59028959e+00 -1.58826101e+00 -1.58690119e+00 -1.58509934e+00 -1.58318400e+00 -1.58190858e+00 -1.58048213e+00 -1.57886183e+00 -1.57646120e+00 -1.57506824e+00 -1.57301974e+00 -1.57138574e+00 -1.56972742e+00 -1.56825697e+00 -1.56706500e+00 -1.56562304e+00 -1.56461823e+00 -1.56260622e+00 -1.56022084e+00 -1.55817509e+00 -1.55697918e+00 -1.55621052e+00 -1.55402112e+00 -1.55272102e+00 -1.55084324e+00 -1.54941559e+00 -1.54825056e+00 -1.54599965e+00 -1.54489088e+00 -1.54360402e+00 -1.54251826e+00 -1.53997254e+00 -1.53772342e+00 -1.53574646e+00 -1.53431499e+00 -1.53299499e+00 -1.53115463e+00 -1.52894092e+00 -1.52701962e+00 -1.52496290e+00 -1.52267456e+00 -1.52130425e+00 -1.51971972e+00 -1.51803708e+00 -1.51559138e+00 -1.51422811e+00 -1.51215923e+00 -1.51056588e+00 -1.50867593e+00 -1.50637829e+00 -1.50502789e+00 -1.50341022e+00 -1.50131404e+00 -1.49966884e+00 -1.49792337e+00 -1.49658310e+00 -1.49516284e+00 -1.49333477e+00 -1.49119055e+00 -1.48870087e+00 -1.48701859e+00 -1.48610234e+00 -1.48399603e+00 -1.48287880e+00 -1.48124564e+00 -1.47908473e+00 -1.47705042e+00 -1.47493863e+00 -1.47324932e+00 -1.47181308e+00 -1.46964502e+00 -1.46782494e+00 -1.46679783e+00 -1.46429801e+00 -1.46307516e+00 -1.46173179e+00 -1.46009231e+00 -1.45866263e+00 -1.45698440e+00 -1.45590043e+00 -1.45469606e+00 -1.45268023e+00 -1.45081508e+00 -1.44917119e+00 -1.44754946e+00 -1.44517469e+00 -1.44362700e+00 -1.44082093e+00 -1.43825924e+00 -1.43655252e+00 -1.43466139e+00 -1.43325877e+00 -1.43265736e+00 -1.43124080e+00 -1.42947602e+00 -1.42765534e+00 -1.42651725e+00 -1.42485857e+00 -1.42360389e+00 -1.42198586e+00 -1.42044127e+00 -1.41973472e+00 -1.41769218e+00 -1.41589725e+00 -1.41469717e+00 -1.41264117e+00 -1.41071904e+00 -1.40853870e+00 -1.40643895e+00 -1.40484345e+00 -1.40339887e+00 -1.40174162e+00 -1.39924634e+00 -1.39771152e+00 -1.39602077e+00 -1.39405584e+00 -1.39323294e+00 -1.39117670e+00 -1.39042401e+00 -1.38902414e+00 -1.38724434e+00 -1.38496435e+00 -1.38364112e+00 -1.38145733e+00 -1.38014913e+00 -1.37849021e+00 -1.37704432e+00 -1.37599325e+00 -1.37498653e+00 -1.37328136e+00 -1.37209094e+00 -1.37069798e+00 -1.36905122e+00 -1.36790407e+00 -1.36637604e+00 -1.36463618e+00 -1.36295116e+00 -1.36169815e+00 -1.35976434e+00 -1.35828519e+00 -1.35609818e+00 -1.35431659e+00 -1.35220957e+00 -1.35105193e+00 -1.34927487e+00 -1.34740782e+00 -1.34583747e+00 -1.34366024e+00 -1.34217000e+00 -1.34034216e+00 -1.33857024e+00 -1.33677185e+00 -1.33469152e+00 -1.33270013e+00 -1.33095860e+00 -1.32963705e+00 -1.32871282e+00 -1.32720935e+00 -1.32557404e+00 -1.32333076e+00 -1.32179439e+00 -1.31987166e+00 -1.31821251e+00 -1.31639576e+00 -1.31515253e+00 -1.31381869e+00 -1.31213021e+00 -1.31022012e+00 -1.30905545e+00 -1.30762875e+00 -1.30587220e+00 -1.30371630e+00 -1.30253911e+00 -1.29999638e+00 -1.29884851e+00 -1.29723001e+00 -1.29541576e+00 -1.29360414e+00 -1.29214358e+00 -1.29125023e+00 -1.28915632e+00 -1.28733933e+00 -1.28563726e+00 -1.28403866e+00 -1.28128815e+00 -1.27990401e+00 -1.27821755e+00 -1.27655840e+00 -1.27454877e+00 -1.27263713e+00 -1.27114558e+00 -1.26906085e+00 -1.26663971e+00 -1.26523912e+00 -1.26372492e+00 -1.26269722e+00 -1.26079750e+00 -1.25934291e+00 -1.25776887e+00 -1.25630856e+00 -1.25460064e+00 -1.25392735e+00 -1.25260139e+00 -1.25116765e+00 -1.24837351e+00 -1.24668622e+00 -1.24488473e+00 -1.24312782e+00 -1.24188459e+00 -1.23956990e+00 -1.23794639e+00 -1.23628163e+00 -1.23450136e+00 -1.23260236e+00 -1.23132849e+00 -1.22996521e+00 -1.22873306e+00 -1.22587943e+00 -1.22404826e+00 -1.22292280e+00 -1.22180974e+00 -1.22045553e+00 -1.21905613e+00 -1.21727872e+00 -1.21593523e+00 -1.21430695e+00 -1.21296644e+00 -1.21218359e+00 -1.21059608e+00 -1.20932102e+00 -1.20768511e+00 -1.20611680e+00 -1.20481288e+00 -1.20336294e+00 -1.20247102e+00 -1.20131242e+00 -1.20001876e+00 -1.19878829e+00 -1.19715834e+00 -1.19648540e+00 -1.19506931e+00 -1.19329858e+00 -1.19165528e+00 -1.18973148e+00 -1.18788338e+00 -1.18559849e+00 -1.18365777e+00 -1.18234682e+00 -1.18111622e+00 -1.17972350e+00 -1.17841053e+00 -1.17692113e+00 -1.17584360e+00 -1.17442501e+00 -1.17304707e+00 -1.17173958e+00 -1.17046881e+00 -1.16863275e+00 -1.16707003e+00 -1.16598117e+00 -1.16413379e+00 -1.16254258e+00 -1.16050565e+00 -1.15893316e+00 -1.15680265e+00 -1.15503836e+00 -1.15394664e+00 -1.15264678e+00 -1.15082085e+00 -1.14882016e+00 -1.14616024e+00 -1.14482856e+00 -1.14357352e+00 -1.14232469e+00 -1.14029229e+00 -1.13941061e+00 -1.13847840e+00 -1.13656020e+00 -1.13560748e+00 -1.13426530e+00 -1.13294888e+00 -1.13146806e+00 -1.13041663e+00 -1.12912607e+00 -1.12807775e+00 -1.12624717e+00 -1.12502110e+00 -1.12412548e+00 -1.12309682e+00 -1.12170625e+00 -1.12057400e+00 -1.11889052e+00 -1.11755896e+00 -1.11589062e+00 -1.11508870e+00 -1.11318624e+00 -1.11156678e+00 -1.10876203e+00 -1.10778522e+00 -1.10642135e+00 -1.10483181e+00 -1.10374701e+00 -1.10268521e+00 -1.10167146e+00 -1.10056269e+00 -1.09835386e+00 -1.09719551e+00 -1.09582162e+00 -1.09459555e+00 -1.09378886e+00 -1.09287310e+00 -1.09173441e+00 -1.09094024e+00 -1.08945036e+00 -1.08816171e+00 -1.08674383e+00 -1.08529150e+00 -1.08406472e+00 -1.08218205e+00 -1.08048415e+00 -1.07871771e+00 -1.07746029e+00 -1.07602441e+00 -1.07495821e+00 -1.07386398e+00 -1.07206404e+00 -1.07076061e+00 -1.06930304e+00 -1.06857824e+00 -1.06728709e+00 -1.06586790e+00 -1.06506467e+00 -1.06350482e+00 -1.06196105e+00 -1.06131792e+00 -1.05991554e+00 -1.05787027e+00 -1.05671263e+00 -1.05547702e+00 -1.05441296e+00 -1.05305278e+00 -1.05182695e+00 -1.05062485e+00 -1.04947102e+00 -1.04773808e+00 -1.04601026e+00 -1.04499066e+00 -1.04281223e+00 -1.04155624e+00 -1.04025829e+00 -1.03852475e+00 -1.03699946e+00 -1.03624094e+00 -1.03477359e+00 -1.03339970e+00 -1.03166878e+00 -1.03074276e+00 -1.02931309e+00 -1.02747512e+00 -1.02634740e+00 -1.02529967e+00 -1.02387547e+00 -1.02258694e+00 -1.02138019e+00 -1.02033234e+00 -1.01857066e+00 -1.01700628e+00 -1.01572156e+00 -1.01365995e+00 -1.01180530e+00 -1.01019299e+00 -1.00872898e+00 -1.00761771e+00 -1.00650036e+00 -1.00558257e+00 -1.00417030e+00 -1.00271153e+00 -1.00148785e+00 -1.00026441e+00 -9.99235034e-01 -9.97651160e-01 -9.95914280e-01 -9.95090902e-01 -9.94287014e-01 -9.92656052e-01 -9.91645277e-01 -9.90246058e-01 -9.89031315e-01 -9.87881660e-01 -9.86362755e-01 -9.84489143e-01 -9.82978761e-01 -9.81330991e-01 -9.80388761e-01 -9.78972852e-01 -9.77682829e-01 -9.76543128e-01 -9.75071073e-01 -9.73846078e-01 -9.72488165e-01 -9.71170425e-01 -9.70459700e-01 -9.68777478e-01 -9.67260659e-01 -9.66699243e-01 -9.65496242e-01 -9.63971257e-01 -9.62546527e-01 -9.61431265e-01 -9.59744811e-01 -9.58087146e-01 -9.56511736e-01 -9.55107927e-01 -9.53675270e-01 -9.52071369e-01 -9.50592697e-01 -9.49194789e-01 -9.48118269e-01 -9.46406245e-01 -9.45540071e-01 -9.44947839e-01 -9.43885207e-01 -9.42939699e-01 -9.41441596e-01 -9.40311790e-01 -9.39083517e-01 -9.37677979e-01 -9.35910583e-01 -9.34835613e-01 -9.33993876e-01 -9.32713866e-01 -9.31726575e-01 -9.30612087e-01 -9.29162800e-01 -9.27550077e-01 -9.26676393e-01 -9.25786614e-01 -9.24767494e-01 -9.23376203e-01 -9.22257006e-01 -9.21288133e-01 -9.19695079e-01 -9.18768167e-01 -9.17328596e-01 -9.15692806e-01 -9.15030062e-01 -9.13571835e-01 -9.12431061e-01 -9.10789371e-01 -9.09562767e-01 -9.08904135e-01 -9.08176184e-01 -9.07422006e-01 -9.06696796e-01 -9.05574441e-01 -9.04792130e-01 -9.04069543e-01 -9.03171718e-01 -9.02025282e-01 -9.01042581e-01 -9.00262415e-01 -8.99218380e-01 -8.97884071e-01 -8.96246433e-01 -8.94717574e-01 -8.93566310e-01 -8.92827034e-01 -8.91889036e-01 -8.90503228e-01 -8.89387548e-01 -8.87898743e-01 -8.86948109e-01 -8.85892391e-01 -8.83871794e-01 -8.82470548e-01 -8.81744266e-01 -8.80966246e-01 -8.80230010e-01 -8.79135132e-01 -8.77745390e-01 -8.76810968e-01 -8.75477672e-01 -8.74312639e-01 -8.72723699e-01 -8.71484160e-01 -8.70482385e-01 -8.69725049e-01 -8.68391693e-01 -8.67431343e-01 -8.66515934e-01 -8.65378559e-01 -8.64247143e-01 -8.62918913e-01 -8.62122357e-01 -8.61158609e-01 -8.60282302e-01 -8.58878434e-01 -8.57886970e-01 -8.56834769e-01 -8.55996072e-01 -8.54565084e-01 -8.53472173e-01 -8.51982176e-01 -8.50628734e-01 -8.48530769e-01 -8.47081602e-01 -8.46007109e-01 -8.44439924e-01 -8.43055069e-01 -8.41985166e-01 -8.40678871e-01 -8.39634717e-01 -8.38671923e-01 -8.37399721e-01 -8.36421549e-01 -8.35402489e-01 -8.34483683e-01 -8.33372295e-01 -8.32415342e-01 -8.31249416e-01 -8.30194831e-01 -8.29008162e-01 -8.28030586e-01 -8.26904714e-01 -8.25192153e-01 -8.23328316e-01 -8.22234154e-01 -8.21244955e-01 -8.20106089e-01 -8.19667339e-01 -8.18767309e-01 -8.17778289e-01 -8.16492140e-01 -8.15342665e-01 -8.14181924e-01 -8.12937498e-01 -8.12004924e-01 -8.10643613e-01 -8.09557915e-01 -8.08303654e-01 -8.06374431e-01 -8.05695474e-01 -8.04803252e-01 -8.03854525e-01 -8.02679837e-01 -8.01403940e-01 -8.00599456e-01 -7.99360871e-01 -7.98505008e-01 -7.97684968e-01 -7.96052277e-01 -7.95378685e-01 -7.94126391e-01 -7.92807281e-01 -7.92077661e-01 -7.90832162e-01 -7.89489985e-01 -7.88124800e-01 -7.86961555e-01 -7.85598636e-01 -7.84554422e-01 -7.83121049e-01 -7.81852961e-01 -7.80641496e-01 -7.79858053e-01 -7.78573573e-01 -7.77511597e-01 -7.76670516e-01 -7.76103735e-01 -7.74254024e-01 -7.73306966e-01 -7.72273779e-01 -7.70701170e-01 -7.69452512e-01 -7.68257022e-01 -7.67361224e-01 -7.66222894e-01 -7.65284836e-01 -7.64640987e-01 -7.63895333e-01 -7.62510896e-01 -7.60952711e-01 -7.59961665e-01 -7.58641064e-01 -7.56951928e-01 -7.55944550e-01 -7.54910469e-01 -7.53734469e-01 -7.52538502e-01 -7.51287401e-01 -7.50576138e-01 -7.49106884e-01 -7.48171091e-01 -7.47289896e-01 -7.46640682e-01 -7.46100605e-01 -7.45054841e-01 -7.44025290e-01 -7.42890775e-01 -7.42012918e-01 -7.40974426e-01 -7.39489853e-01 -7.38503754e-01 -7.37123787e-01 -7.35889673e-01 -7.34826684e-01 -7.33906269e-01 -7.33190060e-01 -7.31138110e-01 -7.30402410e-01 -7.28753269e-01 -7.27244556e-01 -7.25871563e-01 -7.24842966e-01 -7.23310590e-01 -7.22240210e-01 -7.21017301e-01 -7.19974935e-01 -7.18792558e-01 -7.18127429e-01 -7.16724932e-01 -7.15830922e-01 -7.14869738e-01 -7.13828564e-01 -7.13200629e-01 -7.11506307e-01 -7.10556030e-01 -7.09682167e-01 -7.08437502e-01 -7.07536578e-01 -7.06193984e-01 -7.05001414e-01 -7.03845203e-01 -7.02821553e-01 -7.01816142e-01 -7.00831950e-01 -6.99725091e-01 -6.98935986e-01 -6.97854161e-01 -6.96928680e-01 -6.95864916e-01 -6.94731355e-01 -6.94019258e-01 -6.92648053e-01 -6.91515267e-01 -6.90390110e-01 -6.89535677e-01 -6.88721299e-01 -6.87521875e-01 -6.86563551e-01 -6.85824633e-01 -6.84702992e-01 -6.83511257e-01 -6.81781352e-01 -6.80508137e-01 -6.79777205e-01 -6.78516090e-01 -6.77796066e-01 -6.76890910e-01 -6.75618112e-01 -6.74722016e-01 -6.73783123e-01 -6.73068583e-01 -6.72277927e-01 -6.71235204e-01 -6.70216560e-01 -6.69211805e-01 -6.68396831e-01 -6.67109907e-01 -6.66568875e-01 -6.65581226e-01 -6.64326727e-01 -6.63034856e-01 -6.61619186e-01 -6.60818517e-01 -6.59622073e-01 -6.58475518e-01 -6.57526135e-01 -6.56387985e-01 -6.55407310e-01 -6.54426098e-01 -6.53319657e-01 -6.52563810e-01 -6.51482880e-01 -6.50199771e-01 -6.49500310e-01 -6.48091137e-01 -6.46778882e-01 -6.45895422e-01 -6.44834042e-01 -6.44092321e-01 -6.43244803e-01 -6.42018139e-01 -6.41000450e-01 -6.39872372e-01 -6.38736069e-01 -6.37683213e-01 -6.36425853e-01 -6.35059059e-01 -6.33820891e-01 -6.32763505e-01 -6.31347895e-01 -6.30395055e-01 -6.29613996e-01 -6.28599286e-01 -6.27551854e-01 -6.26962781e-01 -6.25998914e-01 -6.24821246e-01 -6.23672783e-01 -6.22861326e-01 -6.22029245e-01 -6.21311724e-01 -6.20206296e-01 -6.19114459e-01 -6.18328631e-01 -6.17564082e-01 -6.16722584e-01 -6.15494967e-01 -6.14439309e-01 -6.13367081e-01 -6.12524688e-01 -6.10828638e-01 -6.09772325e-01 -6.08789980e-01 -6.07863367e-01 -6.06695473e-01 -6.05491936e-01 -6.04834199e-01 -6.03525400e-01 -6.02578819e-01 -6.01392984e-01 -6.00583255e-01 -5.99708438e-01 -5.98939300e-01 -5.98137796e-01 -5.97125888e-01 -5.96183777e-01 -5.95006108e-01 -5.93931198e-01 -5.92472792e-01 -5.91322362e-01 -5.90093493e-01 -5.89049101e-01 -5.87957263e-01 -5.86490929e-01 -5.85071743e-01 -5.84316194e-01 -5.82914472e-01 -5.81852615e-01 -5.81015825e-01 -5.80322206e-01 -5.79294860e-01 -5.77884376e-01 -5.77156842e-01 -5.75857759e-01 -5.74594617e-01 -5.73112428e-01 -5.72118461e-01 -5.71313560e-01 -5.70299566e-01 -5.69771230e-01 -5.68069637e-01 -5.67445099e-01 -5.66264987e-01 -5.65074980e-01 -5.64094901e-01 -5.63122511e-01 -5.62289596e-01 -5.61681747e-01 -5.60315311e-01 -5.58301151e-01 -5.57385325e-01 -5.56359947e-01 -5.55202007e-01 -5.53656101e-01 -5.52913547e-01 -5.51690042e-01 -5.50819874e-01 -5.50102711e-01 -5.49272597e-01 -5.48321664e-01 -5.47350049e-01 -5.45669496e-01 -5.44960797e-01 -5.43455720e-01 -5.42318285e-01 -5.41697919e-01 -5.40891349e-01 -5.39792061e-01 -5.38798511e-01 -5.37638426e-01 -5.36018610e-01 -5.34947634e-01 -5.33829510e-01 -5.32985866e-01 -5.31155825e-01 -5.29496789e-01 -5.28898418e-01 -5.27925253e-01 -5.26461780e-01 -5.24995625e-01 -5.24219573e-01 -5.23067057e-01 -5.21899879e-01 -5.20654678e-01 -5.19378662e-01 -5.18127203e-01 -5.16843736e-01 -5.16084433e-01 -5.15099347e-01 -5.14180183e-01 -5.13329148e-01 -5.12143791e-01 -5.11177480e-01 -5.10539949e-01 -5.09142995e-01 -5.08031249e-01 -5.07073522e-01 -5.06228805e-01 -5.05270183e-01 -5.03827155e-01 -5.02616167e-01 -5.01414895e-01 -5.00586450e-01 -4.99140292e-01 -4.98128891e-01 -4.97249901e-01 -4.95684952e-01 -4.94723946e-01 -4.93608087e-01 -4.91985202e-01 -4.90866393e-01 -4.89470780e-01 -4.88701880e-01 -4.87358600e-01 -4.86100733e-01 -4.85165030e-01 -4.84203398e-01 -4.83064502e-01 -4.81695384e-01 -4.80451435e-01 -4.79472995e-01 -4.78238404e-01 -4.77632165e-01 -4.76749659e-01 -4.75885659e-01 -4.75399435e-01 -4.73943561e-01 -4.72983539e-01 -4.71389830e-01 -4.70505714e-01 -4.68899995e-01 -4.68175858e-01 -4.66956913e-01 -4.65656728e-01 -4.64725018e-01 -4.63681132e-01 -4.62659597e-01 -4.61040974e-01 -4.60477710e-01 -4.59562302e-01 -4.58284229e-01 -4.57346052e-01 -4.56090361e-01 -4.54709321e-01 -4.53690112e-01 -4.52561110e-01 -4.51096892e-01 -4.50317383e-01 -4.49239075e-01 -4.47699904e-01 -4.46646869e-01 -4.45708752e-01 -4.44449097e-01 -4.43324804e-01 -4.42298949e-01 -4.41196650e-01 -4.40626651e-01 -4.40079421e-01 -4.38598275e-01 -4.37582523e-01 -4.36528236e-01 -4.35259938e-01 -4.34011668e-01 -4.32747573e-01 -4.30686057e-01 -4.29666847e-01 -4.28533375e-01 -4.27364320e-01 -4.26343530e-01 -4.25231308e-01 -4.24507141e-01 -4.23560470e-01 -4.22325283e-01 -4.21093345e-01 -4.20289189e-01 -4.18718278e-01 -4.17534709e-01 -4.16139245e-01 -4.15241867e-01 -4.13941503e-01 -4.12503690e-01 -4.11698937e-01 -4.10225064e-01 -4.08572197e-01 -4.07019317e-01 -4.05373633e-01 -4.04368430e-01 -4.03354764e-01 -4.01734173e-01 -4.00488406e-01 -3.99035156e-01 -3.98057491e-01 -3.96915942e-01 -3.95735592e-01 -3.94828469e-01 -3.93680811e-01 -3.91890526e-01 -3.90869886e-01 -3.89755487e-01 -3.88767332e-01 -3.87453556e-01 -3.86298984e-01 -3.85278523e-01 -3.84409845e-01 -3.82479161e-01 -3.81458372e-01 -3.80363137e-01 -3.79328758e-01 -3.78238261e-01 -3.76606435e-01 -3.75728846e-01 -3.74319226e-01 -3.73150349e-01 -3.72329623e-01 -3.70912880e-01 -3.69807839e-01 -3.68619621e-01 -3.67522180e-01 -3.66767257e-01 -3.65528792e-01 -3.64658713e-01 -3.64012271e-01 -3.63052875e-01 -3.61937106e-01 -3.61148059e-01 -3.59999418e-01 -3.58898252e-01 -3.57509613e-01 -3.56710106e-01 -3.55615467e-01 -3.54327261e-01 -3.52446139e-01 -3.50478262e-01 -3.49013567e-01 -3.48012596e-01 -3.46977264e-01 -3.45809549e-01 -3.44687343e-01 -3.43085736e-01 -3.42341989e-01 -3.41222584e-01 -3.39973688e-01 -3.37890983e-01 -3.36755723e-01 -3.35349053e-01 -3.34000289e-01 -3.33241522e-01 -3.31725419e-01 -3.30105126e-01 -3.29518408e-01 -3.28763843e-01 -3.27598810e-01 -3.26477617e-01 -3.25217098e-01 -3.23911369e-01 -3.22595507e-01 -3.20939451e-01 -3.19506377e-01 -3.18465263e-01 -3.17191780e-01 -3.16302031e-01 -3.14989686e-01 -3.13641548e-01 -3.12222570e-01 -3.10869366e-01 -3.09488118e-01 -3.08222622e-01 -3.07502955e-01 -3.06220472e-01 -3.04442167e-01 -3.03180099e-01 -3.02090466e-01 -3.00945491e-01 -2.99702078e-01 -2.98671782e-01 -2.97580928e-01 -2.95854509e-01 -2.94278830e-01 -2.93488204e-01 -2.92655349e-01 -2.91263759e-01 -2.90278971e-01 -2.88973510e-01 -2.87460655e-01 -2.86124825e-01 -2.84770608e-01 -2.82902896e-01 -2.81171322e-01 -2.80171901e-01 -2.79060811e-01 -2.77591616e-01 -2.76385963e-01 -2.75370210e-01 -2.74354547e-01 -2.73419201e-01 -2.72131294e-01 -2.70951986e-01 -2.70280272e-01 -2.68838525e-01 -2.66798973e-01 -2.65643358e-01 -2.64568537e-01 -2.63443530e-01 -2.61816084e-01 -2.60821521e-01 -2.59052545e-01 -2.57423133e-01 -2.56648511e-01 -2.55059958e-01 -2.54207402e-01 -2.52883345e-01 -2.51817971e-01 -2.50084579e-01 -2.48975441e-01 -2.47627854e-01 -2.46407256e-01 -2.44952336e-01 -2.44289562e-01 -2.43074179e-01 -2.41444826e-01 -2.39760965e-01 -2.38562718e-01 -2.37546697e-01 -2.35919610e-01 -2.34512672e-01 -2.33402207e-01 -2.32249200e-01 -2.30945259e-01 -2.29025319e-01 -2.27757946e-01 -2.26851642e-01 -2.25561157e-01 -2.24455819e-01 -2.23023042e-01 -2.21464604e-01 -2.20011175e-01 -2.18834728e-01 -2.17523664e-01 -2.16673017e-01 -2.15540588e-01 -2.14637548e-01 -2.13688895e-01 -2.12196901e-01 -2.10867599e-01 -2.09491983e-01 -2.08103269e-01 -2.06692219e-01 -2.05216005e-01 -2.03774318e-01 -2.03053162e-01 -2.02018037e-01 -1.99308261e-01 -1.98707655e-01 -1.97733119e-01 -1.96666047e-01 -1.95849180e-01 -1.95034549e-01 -1.94053575e-01 -1.92653596e-01 -1.91217259e-01 -1.89950809e-01 -1.88198283e-01 -1.87047601e-01 -1.85909852e-01 -1.84550896e-01 -1.83416054e-01 -1.81246847e-01 -1.79863095e-01 -1.78504676e-01 -1.76403910e-01 -1.75335780e-01 -1.74164817e-01 -1.72858208e-01 -1.71832263e-01 -1.70450881e-01 -1.68764323e-01 -1.67607278e-01 -1.66347831e-01 -1.64331451e-01 -1.62961856e-01 -1.61941722e-01 -1.60316736e-01 -1.58610061e-01 -1.57707676e-01 -1.55984417e-01 -1.54732496e-01 -1.53991252e-01 -1.52677715e-01 -1.51440039e-01 -1.49674505e-01 -1.48417190e-01 -1.47350907e-01 -1.45239681e-01 -1.44295081e-01 -1.42419383e-01 -1.41169265e-01 -1.40394777e-01 -1.39345050e-01 -1.38615459e-01 -1.36758611e-01 -1.35869741e-01 -1.35183215e-01 -1.34159163e-01 -1.33323416e-01 -1.31910831e-01 -1.31301120e-01 -1.30550608e-01 -1.28795415e-01 -1.26579568e-01 -1.25117689e-01 -1.23917483e-01 -1.22739263e-01 -1.21520944e-01 -1.20615296e-01 -1.19847171e-01 -1.18372060e-01 -1.16541758e-01 -1.15052693e-01 -1.13554619e-01 -1.11987524e-01 -1.10497423e-01 -1.09099381e-01 -1.07647143e-01 -1.06900282e-01 -1.05543159e-01 -1.03566356e-01 -1.02066271e-01 -1.00910261e-01 -9.96042639e-02 -9.83824953e-02 -9.65754911e-02 -9.51292738e-02 -9.38364789e-02 -9.22927856e-02 -9.13193673e-02 -9.04998183e-02 -8.91173482e-02 -8.74314457e-02 -8.60080644e-02 -8.44959319e-02 -8.29466432e-02 -8.14294815e-02 -8.06118995e-02 -7.91083947e-02 -7.75704309e-02 -7.65459165e-02 -7.55306333e-02 -7.41245896e-02 -7.34859928e-02 -7.21922144e-02 -7.17977509e-02 -7.07093105e-02 -6.95204437e-02 -6.83577284e-02 -6.73118755e-02 -6.64254129e-02 -6.41376600e-02 -6.28712773e-02 -6.17964976e-02 -6.06556609e-02 -5.97609133e-02 -5.83174229e-02 -5.67497946e-02 -5.53600937e-02 -5.37556969e-02 -5.28517738e-02 -5.17743416e-02 -5.01349531e-02 -4.86896969e-02 -4.76273000e-02 -4.62110378e-02 -4.48062383e-02 -4.38320525e-02 -4.23067212e-02 -4.08690497e-02 -3.98975350e-02 -3.87689732e-02 -3.72924246e-02 -3.59525122e-02 -3.45915072e-02 -3.34551632e-02 -3.23262513e-02 -3.09639592e-02 -3.00876535e-02 -2.77225040e-02 -2.65632514e-02 -2.54447144e-02 -2.34214384e-02 -2.18906309e-02 -2.01006457e-02 -1.85236428e-02 -1.74930133e-02 -1.62851810e-02 -1.43173113e-02 -1.29406732e-02 -1.20229423e-02 -1.13542266e-02 -1.04090413e-02 -8.56193155e-03 -7.49652321e-03 -6.21491717e-03 -4.72325552e-03 -3.32291913e-03 -2.47316342e-03 -1.27295800e-03 9.08928268e-05 1.29611092e-03 2.48877960e-03 3.26432684e-03 4.39196127e-03 5.39556798e-03 6.93971617e-03 8.35341774e-03 9.52707231e-03 1.09129576e-02 1.21549210e-02 1.42471353e-02 1.60723291e-02 1.73505079e-02 1.84555352e-02 2.05200706e-02 2.23483015e-02 2.35788282e-02 2.49500033e-02 2.63460875e-02 2.77124513e-02 2.90098693e-02 2.99394373e-02 3.12211420e-02 3.28704827e-02 3.42268161e-02 3.53652686e-02 3.65301557e-02 3.75120938e-02 3.87320668e-02 4.00453024e-02 4.11527790e-02 4.24795337e-02 4.39193882e-02 4.49916199e-02 4.66938838e-02 4.79483157e-02 4.89163771e-02 4.96640466e-02 5.09667955e-02 5.23562171e-02 5.36786169e-02 5.52004538e-02 5.61999828e-02 5.80488294e-02 5.97188249e-02 6.07967004e-02 6.26557767e-02 6.39152899e-02 6.50755316e-02 6.58904016e-02 6.74705207e-02 7.00109750e-02 7.08012655e-02 7.23706111e-02 7.34482110e-02 7.51216486e-02 7.61558414e-02 7.82603100e-02 7.96612799e-02 8.05905163e-02 8.17965865e-02 8.28864723e-02 8.42275023e-02 8.68803412e-02 8.82796422e-02 8.93684402e-02 9.07207578e-02 9.15944874e-02 9.30237025e-02 9.38513279e-02 9.52467024e-02 9.72194448e-02 9.86288860e-02 9.95738506e-02 1.01082474e-01 1.03530064e-01 1.05618387e-01 1.07264511e-01 1.08531661e-01 1.10444613e-01 1.11234725e-01 1.12271257e-01 1.13672212e-01 1.15914233e-01 1.16893761e-01 1.17950507e-01 1.18926220e-01 1.20235227e-01 1.21653840e-01 1.22416295e-01 1.23382881e-01 1.24407686e-01 1.26130447e-01 1.27010569e-01 1.28121078e-01 1.29612029e-01 1.31353050e-01 1.32508129e-01 1.33475885e-01 1.35368958e-01 1.37643307e-01 1.38726145e-01 1.40701786e-01 1.42644227e-01 1.44123510e-01 1.46304891e-01 1.46878943e-01 1.48551479e-01 1.49890423e-01 1.51367292e-01 1.53361961e-01 1.54248044e-01 1.55210838e-01 1.56416774e-01 1.57535553e-01 1.58378571e-01 1.60520136e-01 1.62270486e-01 1.64347425e-01 1.65567368e-01 1.66824847e-01 1.67973727e-01 1.69823140e-01 1.71100795e-01 1.72652587e-01 1.74200907e-01 1.75819263e-01 1.76702812e-01 1.77530110e-01 1.79608643e-01 1.81302667e-01 1.82752147e-01 1.84057683e-01 1.85850725e-01 1.88036442e-01 1.89357609e-01 1.91127509e-01 1.92526728e-01 1.94710299e-01 1.95507079e-01 1.97405592e-01 1.99111238e-01 2.00474873e-01 2.02602729e-01 2.04048678e-01 2.05706179e-01 2.06725165e-01 2.08360359e-01 2.09857941e-01 2.11033523e-01 2.12556124e-01 2.13915586e-01 2.16454759e-01 2.17953026e-01 2.19204098e-01 2.21071050e-01 2.22431779e-01 2.23515227e-01 2.25158468e-01 2.26682872e-01 2.27730021e-01 2.29039222e-01 2.30118468e-01 2.32750639e-01 2.35038996e-01 2.36919701e-01 2.39310503e-01 2.41165608e-01 2.43291542e-01 2.44290084e-01 2.45650560e-01 2.47786254e-01 2.49755517e-01 2.53361523e-01 2.55182177e-01 2.56935805e-01 2.59605467e-01 2.61575848e-01 2.63133168e-01 2.65694112e-01 2.68437326e-01 2.70980656e-01 2.73027480e-01 2.76169509e-01 2.79155612e-01 2.82181472e-01 2.84882575e-01 2.86821902e-01 2.88306832e-01 2.91412413e-01 2.92734563e-01 2.93965846e-01 2.96037287e-01 2.98157036e-01 3.00284773e-01 3.02935719e-01 3.06048572e-01 3.08071524e-01 3.09439480e-01 3.12110752e-01 3.14264983e-01 3.16265404e-01 3.19510162e-01 3.24064761e-01 3.27920020e-01 3.30137193e-01 3.33309084e-01 3.35767150e-01 3.37929130e-01 3.40642750e-01 3.43491793e-01 3.46171170e-01 3.49132866e-01 3.52068007e-01 3.55701208e-01 3.59868914e-01 3.64920646e-01 3.69219810e-01 3.73762339e-01 3.77401561e-01 3.81885052e-01 3.85695666e-01 3.90216738e-01 3.93571198e-01 3.98361802e-01 4.02935207e-01 4.08247828e-01 4.10963744e-01 4.14904356e-01 4.20114696e-01 4.26818579e-01 4.32486415e-01 4.38744456e-01 4.43349153e-01 4.47207481e-01 4.54183787e-01 4.60666239e-01 4.67133164e-01 4.72676873e-01 4.78919983e-01 4.85046327e-01 4.94876474e-01 5.03586590e-01 5.10866046e-01 5.22888720e-01 5.30014932e-01 5.38862705e-01 5.48667967e-01 5.60950756e-01 5.73311985e-01 5.82570314e-01 5.99478543e-01 6.18176341e-01 6.34617627e-01 6.51609063e-01 6.66620970e-01 7.01812625e-01 7.39206910e-01 7.77385235e-01 8.17882597e-01 8.59479666e-01 9.61791933e-01 1.28563309e+00 1.46566343e+00 
            </HistogramBinning>
          </PDF>
        </CumulativePDF_cls0>
        <CumulativePDF_cls1>
          <PDF Name="GaussTransform var0 cls1" MinNSmooth="0" MaxNSmooth="0" InterpolMethod="1" KDE_type="0" KDE_iter="1" KDE_border="1" KDE_finefactor="0.0000000000000000e+00">
            <Histogram Name="Cumulative_Var0_cls1_original" NBins="1696" XMin="-3.6506307125091553e+00" XMax="2.8024141788482666e+00" HasEquidistantBins="0">
